booster[0]:
0:[f0<4] yes=1,no=2,missing=2
	1:[f2<7] yes=3,no=4,missing=4
		3:[f0<2] yes=7,no=8,missing=8
			7:[f5<120] yes=15,no=16,missing=16
				15:[f2<2] yes=31,no=32,missing=32
					31:leaf=-0.0717311427
					32:leaf=-0.17456314
				16:[f7<3120] yes=33,no=34,missing=34
					33:leaf=0.0801436156
					34:leaf=-0.532889485
			8:[f2<4] yes=17,no=18,missing=18
				17:[f0<3] yes=35,no=36,missing=36
					35:leaf=-0.592422247
					36:leaf=-0.460540771
				18:[f1<2.00001001] yes=37,no=38,missing=38
					37:leaf=-0.59138149
					38:leaf=-0.0649173856
		4:[f0<3] yes=9,no=10,missing=10
			9:[f0<2] yes=19,no=20,missing=20
				19:[f2<66] yes=39,no=40,missing=40
					39:leaf=-0.445479065
					40:leaf=-0.564289987
				20:[f5<29] yes=41,no=42,missing=42
					41:leaf=-0.591418624
					42:leaf=-0.589531958
			10:[f5<132] yes=21,no=22,missing=22
				21:[f1<2.00001001] yes=43,no=44,missing=44
					43:leaf=-0.513179839
					44:leaf=-0.453309804
				22:[f1<2.00001001] yes=45,no=46,missing=46
					45:leaf=-0.518258333
					46:leaf=-0.324613869
	2:[f1<2.00001001] yes=5,no=6,missing=6
		5:[f0<7] yes=11,no=12,missing=11
			11:[f0<5] yes=23,no=24,missing=24
				23:[f4<2.00001001] yes=47,no=48,missing=48
					47:leaf=-0.349763036
					48:leaf=-0.449517906
				24:[f0<7] yes=49,no=50,missing=50
					49:leaf=-0.535926342
					50:leaf=-0.514266193
			12:[f0<31] yes=25,no=26,missing=26
				25:[f0<10] yes=51,no=52,missing=52
					51:leaf=-0.351385236
					52:leaf=-0.412908882
				26:[f0<86] yes=53,no=54,missing=54
					53:leaf=-0.460568994
					54:leaf=-0.445205301
		6:[f0<49] yes=13,no=14,missing=13
			13:[f2<3] yes=27,no=28,missing=28
				27:[f0<14] yes=55,no=56,missing=56
					55:leaf=-0.0359631591
					56:leaf=-0.204198778
				28:[f0<6] yes=57,no=58,missing=58
					57:leaf=-0.188651219
					58:leaf=-0.387211114
			14:[f2<4] yes=29,no=30,missing=30
				29:[f5<2] yes=59,no=60,missing=60
					59:leaf=-0.15944396
					60:leaf=-0.0492752045
				30:[f5<2] yes=61,no=62,missing=62
					61:leaf=-0.258892864
					62:leaf=-0.158517435
booster[1]:
0:[f0<4] yes=1,no=2,missing=2
	1:[f2<7] yes=3,no=4,missing=4
		3:[f0<2] yes=7,no=8,missing=8
			7:[f5<66] yes=15,no=16,missing=16
				15:[f7<2] yes=31,no=32,missing=32
					31:leaf=0.123906828
					32:leaf=-0.11085517
				16:[f1<2.00001001] yes=33,no=34,missing=34
					33:leaf=-0.462160826
					34:leaf=0.051944539
			8:[f2<4] yes=17,no=18,missing=18
				17:[f0<3] yes=35,no=36,missing=36
					35:leaf=-0.45763424
					36:leaf=-0.342314392
				18:[f1<2.00001001] yes=37,no=38,missing=38
					37:leaf=-0.456736356
					38:leaf=-0.0454976857
		4:[f0<3] yes=9,no=10,missing=10
			9:[f0<2] yes=19,no=20,missing=20
				19:[f2<96] yes=39,no=40,missing=40
					39:leaf=-0.329850823
					40:leaf=-0.432000428
				20:[f5<34] yes=41,no=42,missing=41
					41:leaf=-0.456711143
					42:leaf=-0.454957515
			10:[f5<132] yes=21,no=22,missing=22
				21:[f7<6] yes=43,no=44,missing=43
					43:leaf=-0.317914963
					44:leaf=-0.345501214
				22:[f1<2.00001001] yes=45,no=46,missing=46
					45:leaf=-0.391338468
					46:leaf=-0.234139353
	2:[f1<2.00001001] yes=5,no=6,missing=6
		5:[f0<9] yes=11,no=12,missing=11
			11:[f0<5] yes=23,no=24,missing=24
				23:[f5<49] yes=47,no=48,missing=48
					47:leaf=-0.335519105
					48:leaf=-0.32475239
				24:[f0<7] yes=49,no=50,missing=50
					49:leaf=-0.406754732
					50:leaf=-0.387754381
			12:[f0<54] yes=25,no=26,missing=26
				25:[f0<13] yes=51,no=52,missing=52
					51:leaf=-0.27837047
					52:leaf=-0.312375724
				26:[f0<85] yes=53,no=54,missing=54
					53:leaf=-0.37096566
					54:leaf=-0.32967484
		6:[f0<35] yes=13,no=14,missing=13
			13:[f2<6] yes=27,no=28,missing=28
				27:[f2<2] yes=55,no=56,missing=56
					55:leaf=-0.0839755312
					56:leaf=-0.194283947
				28:[f0<9] yes=57,no=58,missing=58
					57:leaf=-0.394361824
					58:leaf=-0.296693057
			14:[f2<2] yes=29,no=30,missing=30
				29:[f5<2] yes=59,no=60,missing=60
					59:leaf=-0.0903509855
					60:leaf=-0.014488033
				30:[f2<204.000015] yes=61,no=62,missing=62
					61:leaf=-0.0760485828
					62:leaf=-0.137213945
booster[2]:
0:[f0<4] yes=1,no=2,missing=2
	1:[f2<7] yes=3,no=4,missing=4
		3:[f0<2] yes=7,no=8,missing=8
			7:[f5<120] yes=15,no=16,missing=16
				15:[f7<3120] yes=31,no=32,missing=32
					31:leaf=-0.0712246075
					32:leaf=-0.503692865
				16:[f2<3] yes=33,no=34,missing=34
					33:leaf=0.0756406114
					34:leaf=-0.0379010364
			8:[f2<4] yes=17,no=18,missing=18
				17:[f0<3] yes=35,no=36,missing=36
					35:leaf=-0.395110816
					36:leaf=-0.271279514
				18:[f2<5] yes=37,no=38,missing=38
					37:leaf=-0.0341571867
					38:leaf=-0.43190974
		4:[f0<3] yes=9,no=10,missing=10
			9:[f0<2] yes=19,no=20,missing=20
				19:[f2<96] yes=39,no=40,missing=40
					39:leaf=-0.259251922
					40:leaf=-0.365445256
				20:[f5<34] yes=41,no=42,missing=41
					41:leaf=-0.394018918
					42:leaf=-0.391952425
			10:[f5<132] yes=21,no=22,missing=22
				21:[f1<2.00001001] yes=43,no=44,missing=44
					43:leaf=-0.324521095
					44:leaf=-0.265041828
				22:[f1<2.00001001] yes=45,no=46,missing=46
					45:leaf=-0.321004212
					46:leaf=-0.174134776
	2:[f1<2.00001001] yes=5,no=6,missing=6
		5:[f0<7] yes=11,no=12,missing=11
			11:[f0<5] yes=23,no=24,missing=24
				23:[f6<2.00001001] yes=47,no=48,missing=48
					47:leaf=-0.244976029
					48:leaf=-0.263510644
				24:[f0<7] yes=49,no=50,missing=50
					49:leaf=-0.33748427
					50:leaf=-0.317337662
			12:[f0<44] yes=25,no=26,missing=26
				25:[f0<10] yes=51,no=52,missing=52
					51:leaf=-0.184687838
					52:leaf=-0.235931709
				26:[f2<4] yes=53,no=54,missing=53
					53:leaf=-0.259895921
					54:leaf=-0.289337009
		6:[f0<49] yes=13,no=14,missing=13
			13:[f2<89] yes=27,no=28,missing=28
				27:[f5<2] yes=55,no=56,missing=56
					55:leaf=-0.225747347
					56:leaf=-0.094629243
				28:[f0<6] yes=57,no=58,missing=58
					57:leaf=-0.103761494
					58:leaf=-0.279083729
			14:[f2<2] yes=29,no=30,missing=30
				29:[f0<65] yes=59,no=60,missing=60
					59:leaf=0.0675541237
					60:leaf=-0.018145157
				30:[f5<2] yes=61,no=62,missing=62
					61:leaf=-0.1378728
					62:leaf=-0.0591865443
booster[3]:
0:[f0<4] yes=1,no=2,missing=2
	1:[f2<7] yes=3,no=4,missing=4
		3:[f0<2] yes=7,no=8,missing=8
			7:[f1<2.00001001] yes=15,no=16,missing=16
				15:[f5<65] yes=31,no=32,missing=32
					31:leaf=-0.393605888
					32:leaf=-0.340242028
				16:[f5<29] yes=33,no=34,missing=34
					33:leaf=-0.0602773391
					34:leaf=0.00110424054
			8:[f0<3] yes=17,no=18,missing=18
				17:[f2<4] yes=35,no=36,missing=36
					35:leaf=-0.358441025
					36:leaf=-0.464385659
				18:[f1<2.00001001] yes=37,no=38,missing=38
					37:leaf=-0.380283296
					38:leaf=-0.0433412269
		4:[f0<3] yes=9,no=10,missing=10
			9:[f0<2] yes=19,no=20,missing=20
				19:[f2<96] yes=39,no=40,missing=40
					39:leaf=-0.206942752
					40:leaf=-0.321879089
				20:[f5<29] yes=41,no=42,missing=41
					41:leaf=-0.357057005
					42:leaf=-0.35445118
			10:[f5<132] yes=21,no=22,missing=22
				21:[f5<2] yes=43,no=44,missing=44
					43:leaf=-0.251362711
					44:leaf=-0.210369423
				22:[f1<2.00001001] yes=45,no=46,missing=46
					45:leaf=-0.270905614
					46:leaf=-0.130110472
	2:[f1<2.00001001] yes=5,no=6,missing=6
		5:[f0<9] yes=11,no=12,missing=11
			11:[f0<5] yes=23,no=24,missing=24
				23:[f4<2.00001001] yes=47,no=48,missing=48
					47:leaf=-0.109234452
					48:leaf=-0.210130304
				24:[f0<7] yes=49,no=50,missing=50
					49:leaf=-0.289291382
					50:leaf=-0.266769916
			12:[f0<13] yes=25,no=26,missing=26
				25:[f2<10] yes=51,no=52,missing=51
					51:leaf=-0.164385751
					52:leaf=-0.0739994869
				26:[f0<20] yes=53,no=54,missing=54
					53:leaf=-0.259561449
					54:leaf=-0.205541179
		6:[f0<29] yes=13,no=14,missing=13
			13:[f0<14] yes=27,no=28,missing=27
				27:[f2<2] yes=55,no=56,missing=56
					55:leaf=0.0210810304
					56:leaf=-0.114388108
				28:[f0<16] yes=57,no=58,missing=58
					57:leaf=-0.404206514
					58:leaf=-0.164784491
			14:[f2<5] yes=29,no=30,missing=30
				29:[f0<41] yes=59,no=60,missing=60
					59:leaf=0.04683109
					60:leaf=-0.0223128349
				30:[f0<762] yes=61,no=62,missing=62
					61:leaf=-0.100087777
					62:leaf=-0.0338439457
booster[4]:
0:[f0<4] yes=1,no=2,missing=2
	1:[f2<10] yes=3,no=4,missing=4
		3:[f0<2] yes=7,no=8,missing=8
			7:[f2<2] yes=15,no=16,missing=16
				15:[f7<9] yes=31,no=32,missing=31
					31:leaf=-0.102577254
					32:leaf=0.0424475409
				16:[f5<90] yes=33,no=34,missing=34
					33:leaf=-0.0630221143
					34:leaf=0.0319799259
			8:[f2<4] yes=17,no=18,missing=18
				17:[f0<3] yes=35,no=36,missing=36
					35:leaf=-0.333810449
					36:leaf=-0.208035961
				18:[f1<2.00001001] yes=37,no=38,missing=38
					37:leaf=-0.355373144
					38:leaf=0.000768340484
		4:[f0<3] yes=9,no=10,missing=10
			9:[f0<2] yes=19,no=20,missing=20
				19:[f5<2] yes=39,no=40,missing=39
					39:leaf=-0.258267671
					40:leaf=-0.291940928
				20:[f5<34] yes=41,no=42,missing=41
					41:leaf=-0.332019925
					42:leaf=-0.328658313
			10:[f5<132] yes=21,no=22,missing=22
				21:[f7<6] yes=43,no=44,missing=43
					43:leaf=-0.14835231
					44:leaf=-0.180873111
				22:[f1<2.00001001] yes=45,no=46,missing=46
					45:leaf=-0.229783267
					46:leaf=-0.0966517851
	2:[f1<2.00001001] yes=5,no=6,missing=6
		5:[f0<9] yes=11,no=12,missing=11
			11:[f0<5] yes=23,no=24,missing=24
				23:[f5<49] yes=47,no=48,missing=48
					47:leaf=-0.17039609
					48:leaf=-0.157769218
				24:[f2<4] yes=49,no=50,missing=50
					49:leaf=-0.226588577
					50:leaf=-0.260114878
			12:[f0<54] yes=25,no=26,missing=26
				25:[f0<47] yes=51,no=52,missing=52
					51:leaf=-0.146146312
					52:leaf=-0.0829982981
				26:[f0<86] yes=53,no=54,missing=54
					53:leaf=-0.214957103
					54:leaf=-0.164200693
		6:[f2<2] yes=13,no=14,missing=14
			13:[f5<5] yes=27,no=28,missing=28
				27:[f0<29] yes=55,no=56,missing=56
					55:leaf=-0.129330397
					56:leaf=-0.0402454436
				28:[f0<608] yes=57,no=58,missing=58
					57:leaf=-0.0130153475
					58:leaf=0.0192871392
			14:[f0<49] yes=29,no=30,missing=29
				29:[f0<6] yes=59,no=60,missing=59
					59:leaf=-0.0608898811
					60:leaf=-0.153087392
				30:[f0<55] yes=61,no=62,missing=62
					61:leaf=0.0839962214
					62:leaf=-0.0363426358
booster[5]:
0:[f0<4] yes=1,no=2,missing=2
	1:[f2<7] yes=3,no=4,missing=4
		3:[f0<2] yes=7,no=8,missing=8
			7:[f7<2] yes=15,no=16,missing=16
				15:[f1<2.00001001] yes=31,no=32,missing=32
					31:leaf=-0.312487274
					32:leaf=0.168602735
				16:[f7<9] yes=33,no=34,missing=33
					33:leaf=-0.0796810985
					34:leaf=-0.0117318602
			8:[f0<3] yes=17,no=18,missing=18
				17:[f2<4] yes=35,no=36,missing=36
					35:leaf=-0.315318495
					36:leaf=-0.397702187
				18:[f1<2.00001001] yes=37,no=38,missing=38
					37:leaf=-0.316681176
					38:leaf=-0.0205442272
		4:[f0<3] yes=9,no=10,missing=10
			9:[f0<2] yes=19,no=20,missing=20
				19:[f2<96] yes=39,no=40,missing=40
					39:leaf=-0.150596246
					40:leaf=-0.258554637
				20:[f5<34] yes=41,no=42,missing=41
					41:leaf=-0.312993586
					42:leaf=-0.308652073
			10:[f1<2.00001001] yes=21,no=22,missing=22
				21:[f5<44] yes=43,no=44,missing=44
					43:leaf=-0.215608358
					44:leaf=-0.189407453
				22:[f5<2] yes=45,no=46,missing=46
					45:leaf=-0.173733056
					46:leaf=-0.124489523
	2:[f1<2.00001001] yes=5,no=6,missing=6
		5:[f0<7] yes=11,no=12,missing=11
			11:[f0<5] yes=23,no=24,missing=24
				23:[f6<2.00001001] yes=47,no=48,missing=48
					47:leaf=-0.111896835
					48:leaf=-0.133278012
				24:[f2<2] yes=49,no=50,missing=49
					49:leaf=-0.204621553
					50:leaf=-0.182963848
			12:[f0<31] yes=25,no=26,missing=26
				25:[f0<23] yes=51,no=52,missing=52
					51:leaf=-0.112522893
					52:leaf=-0.0779273584
				26:[f0<47] yes=53,no=54,missing=54
					53:leaf=-0.17234695
					54:leaf=-0.129782841
		6:[f5<2] yes=13,no=14,missing=14
			13:[f0<50] yes=27,no=28,missing=27
				27:[f2<6] yes=55,no=56,missing=56
					55:leaf=-0.125675291
					56:leaf=-0.248641297
				28:[f6<2.00001001] yes=57,no=58,missing=58
					57:leaf=0.0187004153
					58:leaf=-0.0687040091
			14:[f5<123] yes=29,no=30,missing=30
				29:[f0<29] yes=59,no=60,missing=59
					59:leaf=-0.0640529543
					60:leaf=-0.0159624051
				30:[f0<14] yes=61,no=62,missing=61
					61:leaf=0.0545014441
					62:leaf=0.0112442998
booster[6]:
0:[f0<4] yes=1,no=2,missing=2
	1:[f2<66] yes=3,no=4,missing=4
		3:[f0<2] yes=7,no=8,missing=8
			7:[f7<3120] yes=15,no=16,missing=16
				15:[f1<2.00001001] yes=31,no=32,missing=32
					31:leaf=-0.287985891
					32:leaf=-0.0133813126
				16:[f5<2] yes=33,no=34,missing=34
					33:leaf=-0.300402582
					34:leaf=-0.37522465
			8:[f0<3] yes=17,no=18,missing=18
				17:[f2<4] yes=35,no=36,missing=36
					35:leaf=-0.299856365
					36:leaf=-0.352534533
				18:[f2<2] yes=37,no=38,missing=38
					37:leaf=-0.162634119
					38:leaf=0.00201072381
		4:[f0<3] yes=9,no=10,missing=10
			9:[f0<2] yes=19,no=20,missing=20
				19:[f5<2] yes=39,no=40,missing=39
					39:leaf=-0.190082192
					40:leaf=-0.235804498
				20:[f5<34] yes=41,no=42,missing=41
					41:leaf=-0.296851128
					42:leaf=-0.291273713
			10:[f5<132] yes=21,no=22,missing=22
				21:[f7<6] yes=43,no=44,missing=43
					43:leaf=-0.0836193562
					44:leaf=-0.115343735
				22:[f1<2.00001001] yes=45,no=46,missing=46
					45:leaf=-0.160752773
					46:leaf=-0.0369246826
	2:[f1<2.00001001] yes=5,no=6,missing=6
		5:[f0<7] yes=11,no=12,missing=11
			11:[f0<5] yes=23,no=24,missing=24
				23:[f4<2.00001001] yes=47,no=48,missing=48
					47:leaf=0.000369309942
					48:leaf=-0.102280401
				24:[f0<7] yes=49,no=50,missing=50
					49:leaf=-0.186539575
					50:leaf=-0.154556334
			12:[f0<14] yes=25,no=26,missing=26
				25:[f0<10] yes=51,no=52,missing=52
					51:leaf=-0.0272853728
					52:leaf=-0.0694705993
				26:[f0<19] yes=53,no=54,missing=54
					53:leaf=-0.240257829
					54:leaf=-0.0992845893
		6:[f2<6] yes=13,no=14,missing=14
			13:[f5<2] yes=27,no=28,missing=28
				27:[f0<31] yes=55,no=56,missing=55
					55:leaf=-0.0976077989
					56:leaf=-0.0346763022
				28:[f0<8] yes=57,no=58,missing=58
					57:leaf=0.0502993949
					58:leaf=-0.00930596795
			14:[f0<9] yes=29,no=30,missing=30
				29:[f0<6] yes=59,no=60,missing=60
					59:leaf=-0.00467958488
					60:leaf=-0.343539268
				30:[f0<11] yes=61,no=62,missing=62
					61:leaf=0.595279276
					62:leaf=-0.05353681
booster[7]:
0:[f0<9] yes=1,no=2,missing=2
	1:[f2<7] yes=3,no=4,missing=4
		3:[f0<8] yes=7,no=8,missing=8
			7:[f0<7] yes=15,no=16,missing=16
				15:[f2<4] yes=31,no=32,missing=32
					31:leaf=-0.0357990079
					32:leaf=0.0310616381
				16:[f2<3] yes=33,no=34,missing=34
					33:leaf=0.0889024287
					34:leaf=0.35349986
			8:[f5<2] yes=17,no=18,missing=18
				17:[f2<3] yes=35,no=36,missing=36
					35:leaf=-0.423858911
					36:leaf=-0.361959726
				18:[f2<3] yes=37,no=38,missing=38
					37:leaf=-0.472642511
					38:leaf=-0.390132517
		4:[f0<3] yes=9,no=10,missing=10
			9:[f0<2] yes=19,no=20,missing=20
				19:[f5<2] yes=39,no=40,missing=39
					39:leaf=-0.154678658
					40:leaf=-0.206733271
				20:[f5<34] yes=41,no=42,missing=41
					41:leaf=-0.281670988
					42:leaf=-0.274606317
			10:[f0<6] yes=21,no=22,missing=22
				21:[f0<5] yes=43,no=44,missing=44
					43:leaf=-0.0802041665
					44:leaf=0.0202245228
				22:[f0<7] yes=45,no=46,missing=46
					45:leaf=-0.347118735
					46:leaf=-0.19405815
	2:[f0<11] yes=5,no=6,missing=6
		5:[f1<2.00001001] yes=11,no=12,missing=12
			11:[f0<10] yes=23,no=24,missing=24
				23:[f5<31] yes=47,no=48,missing=47
					47:leaf=-0.00751663744
					48:leaf=-0.0421913229
				24:[f2<2] yes=49,no=50,missing=49
					49:leaf=-0.0471765622
					50:leaf=-0.102405459
			12:[f2<3] yes=25,no=26,missing=26
				25:[f0<10] yes=51,no=52,missing=52
					51:leaf=0.222561181
					52:leaf=0.104438372
				26:[f2<6] yes=53,no=54,missing=54
					53:leaf=0.370497227
					54:leaf=0.295229554
		6:[f0<12] yes=13,no=14,missing=14
			13:[f2<3] yes=27,no=28,missing=28
				27:[f5<2] yes=55,no=56,missing=56
					55:leaf=-0.450617492
					56:leaf=-0.528131008
				28:[f2<8] yes=57,no=58,missing=58
					57:leaf=-0.394785881
					58:leaf=-0.37114656
			14:[f1<2.00001001] yes=29,no=30,missing=30
				29:[f0<53646] yes=59,no=60,missing=60
					59:leaf=-0.075166598
					60:leaf=-0.124546789
				30:[f0<14] yes=61,no=62,missing=62
					61:leaf=0.153268695
					62:leaf=-0.0140528893
booster[8]:
0:[f0<29] yes=1,no=2,missing=2
	1:[f2<57] yes=3,no=4,missing=4
		3:[f0<26] yes=7,no=8,missing=8
			7:[f0<25] yes=15,no=16,missing=16
				15:[f0<14] yes=31,no=32,missing=32
					31:leaf=-0.00630129827
					32:leaf=-0.0994818136
				16:[f2<3] yes=33,no=34,missing=34
					33:leaf=0.13807404
					34:leaf=0.279088765
			8:[f0<27] yes=17,no=18,missing=18
				17:[f5<2] yes=35,no=36,missing=36
					35:leaf=-0.377765447
					36:leaf=-0.404001415
				18:[f2<2] yes=37,no=38,missing=38
					37:leaf=0.00254974328
					38:leaf=-0.208729073
		4:[f0<3] yes=9,no=10,missing=10
			9:[f0<2] yes=19,no=20,missing=20
				19:[f5<2] yes=39,no=40,missing=40
					39:leaf=-0.0982458442
					40:leaf=-0.178452983
				20:[f5<34] yes=41,no=42,missing=41
					41:leaf=-0.266136289
					42:leaf=-0.257329315
			10:[f0<6] yes=21,no=22,missing=22
				21:[f0<5] yes=43,no=44,missing=44
					43:leaf=-0.0599291809
					44:leaf=0.013859787
				22:[f0<7] yes=45,no=46,missing=46
					45:leaf=-0.3304106
					46:leaf=-0.0793300569
	2:[f1<2.00001001] yes=5,no=6,missing=6
		5:[f0<30] yes=11,no=12,missing=11
			11:[f2<2] yes=23,no=24,missing=23
				23:[f4<2.00001001] yes=47,no=48,missing=48
					47:leaf=-0.0266894232
					48:leaf=-0.110410571
				24:[f5<2] yes=49,no=50,missing=49
					49:leaf=-0.107829615
					50:leaf=-0.081125319
			12:[f0<44] yes=25,no=26,missing=26
				25:[f0<39] yes=51,no=52,missing=52
					51:leaf=-0.0298500881
					52:leaf=0.116536513
				26:[f0<47] yes=53,no=54,missing=54
					53:leaf=-0.164083838
					54:leaf=-0.0570970885
		6:[f0<42] yes=13,no=14,missing=14
			13:[f0<38] yes=27,no=28,missing=28
				27:[f2<4] yes=55,no=56,missing=56
					55:leaf=0.0409004688
					56:leaf=-0.112670757
				28:[f0<41] yes=57,no=58,missing=58
					57:leaf=0.236022457
					58:leaf=0.0415008254
			14:[f0<49] yes=29,no=30,missing=30
				29:[f0<45] yes=59,no=60,missing=60
					59:leaf=-0.148652494
					60:leaf=-0.267925382
				30:[f0<861] yes=61,no=62,missing=61
					61:leaf=-0.0119024608
					62:leaf=0.0177984647
booster[9]:
0:[f0<9] yes=1,no=2,missing=2
	1:[f0<8] yes=3,no=4,missing=4
		3:[f2<7] yes=7,no=8,missing=8
			7:[f0<7] yes=15,no=16,missing=16
				15:[f0<6] yes=31,no=32,missing=32
					31:leaf=-0.00460712146
					32:leaf=-0.183516905
				16:[f2<3] yes=33,no=34,missing=34
					33:leaf=0.06356062
					34:leaf=0.212490916
			8:[f0<3] yes=17,no=18,missing=18
				17:[f0<2] yes=35,no=36,missing=36
					35:leaf=-0.144803882
					36:leaf=-0.247037455
				18:[f0<6] yes=37,no=38,missing=38
					37:leaf=-0.0360717438
					38:leaf=-0.268839926
		4:[f2<7] yes=9,no=10,missing=10
			9:[f5<2] yes=19,no=20,missing=20
				19:[f2<2] yes=39,no=40,missing=40
					39:leaf=-0.378976196
					40:leaf=-0.33163327
				20:[f2<3] yes=41,no=42,missing=42
					41:leaf=-0.401359886
					42:leaf=-0.349971354
			10:[f5<6] yes=21,no=22,missing=22
				21:[f7<6] yes=43,no=44,missing=43
					43:leaf=-0.296042651
					44:leaf=-0.282752663
				22:[f5<90] yes=45,no=46,missing=46
					45:leaf=-0.301333994
					46:leaf=-0.316213638
	2:[f0<11] yes=5,no=6,missing=6
		5:[f1<2.00001001] yes=11,no=12,missing=12
			11:[f0<10] yes=23,no=24,missing=24
				23:[f5<57] yes=47,no=48,missing=47
					47:leaf=0.00869103335
					48:leaf=-0.0401723012
				24:[f2<5] yes=49,no=50,missing=50
					49:leaf=-0.0381110013
					50:leaf=-0.0111805303
			12:[f2<2] yes=25,no=26,missing=26
				25:[f0<10] yes=51,no=52,missing=52
					51:leaf=0.145910427
					52:leaf=0.0608276464
				26:[f2<3] yes=53,no=54,missing=54
					53:leaf=0.157843426
					54:leaf=0.216382682
		6:[f0<12] yes=13,no=14,missing=14
			13:[f2<2] yes=27,no=28,missing=28
				27:[f5<5] yes=55,no=56,missing=56
					55:leaf=-0.400672346
					56:leaf=-0.436818004
				28:[f2<9] yes=57,no=58,missing=58
					57:leaf=-0.362771809
					58:leaf=-0.341877818
			14:[f0<19] yes=29,no=30,missing=30
				29:[f0<14] yes=59,no=60,missing=60
					59:leaf=0.0870390534
					60:leaf=-0.189991578
				30:[f0<21] yes=61,no=62,missing=62
					61:leaf=0.160851687
					62:leaf=-0.00707407529
booster[10]:
0:[f0<3] yes=1,no=2,missing=2
	1:[f0<2] yes=3,no=4,missing=4
		3:[f2<96] yes=7,no=8,missing=8
			7:[f7<2] yes=15,no=16,missing=16
				15:[f2<7] yes=31,no=32,missing=32
					31:leaf=0.131104439
					32:leaf=1.06189668
				16:[f7<3120] yes=33,no=34,missing=34
					33:leaf=0.000918979174
					34:leaf=-0.31427443
			8:[f1<2.00001001] yes=17,no=18,missing=18
				17:[f5<3] yes=35,no=36,missing=36
					35:leaf=0.300348997
					36:leaf=0.557370245
				18:[f5<2] yes=37,no=38,missing=37
					37:leaf=-0.0719906613
					38:leaf=-0.129299328
		4:[f2<24] yes=9,no=10,missing=10
			9:[f2<4] yes=19,no=20,missing=20
				19:[f7<1922] yes=39,no=40,missing=40
					39:leaf=-0.282723278
					40:leaf=-0.297638446
				20:leaf=-0.330756575
			10:[f5<34] yes=21,no=22,missing=21
				21:[f5<10] yes=41,no=42,missing=42
					41:leaf=-0.227915302
					42:leaf=-0.245298073
				22:[f7<7] yes=43,no=44,missing=43
					43:leaf=-0.208210289
					44:leaf=-0.224288255
	2:[f5<141] yes=5,no=6,missing=6
		5:[f2<2] yes=11,no=12,missing=12
			11:[f0<19] yes=23,no=24,missing=24
				23:[f0<14] yes=45,no=46,missing=46
					45:leaf=0.00383928395
					46:leaf=-0.194289491
				24:[f1<2.00001001] yes=47,no=48,missing=48
					47:leaf=-0.0444169343
					48:leaf=0.0154621927
			12:[f0<444] yes=25,no=26,missing=25
				25:[f5<2] yes=49,no=50,missing=50
					49:leaf=-0.0764995962
					50:leaf=-0.0281805154
				26:[f0<496] yes=51,no=52,missing=52
					51:leaf=0.0756269991
					52:leaf=-0.00680185528
		6:[f1<2.00001001] yes=13,no=14,missing=14
			13:[f0<9] yes=27,no=28,missing=27
				27:[f0<5] yes=53,no=54,missing=53
					53:leaf=-0.0867555514
					54:leaf=-0.148212105
				28:[f0<53] yes=55,no=56,missing=56
					55:leaf=-0.00177197822
					56:leaf=-0.0303782038
			14:[f0<62] yes=29,no=30,missing=29
				29:[f2<3] yes=57,no=58,missing=58
					57:leaf=0.0590651818
					58:leaf=-0.00721765915
				30:[f2<3] yes=59,no=60,missing=60
					59:leaf=0.00892760139
					60:leaf=0.0356922932
booster[11]:
0:[f0<9] yes=1,no=2,missing=2
	1:[f0<8] yes=3,no=4,missing=4
		3:[f2<66] yes=7,no=8,missing=8
			7:[f1<2.00001001] yes=15,no=16,missing=16
				15:[f0<4] yes=31,no=32,missing=32
					31:leaf=-0.240266696
					32:leaf=-0.094935149
				16:[f2<4] yes=33,no=34,missing=34
					33:leaf=-0.00442833593
					34:leaf=0.0421100482
			8:[f0<6] yes=17,no=18,missing=18
				17:[f0<3] yes=35,no=36,missing=36
					35:leaf=-0.124052681
					36:leaf=-0.0170657877
				18:[f0<7] yes=37,no=38,missing=38
					37:leaf=-0.308598667
					38:leaf=-0.0330018885
		4:[f2<7] yes=9,no=10,missing=10
			9:[f5<2] yes=19,no=20,missing=20
				19:[f2<2] yes=39,no=40,missing=40
					39:leaf=-0.343416512
					40:leaf=-0.303860813
				20:[f5<44] yes=41,no=42,missing=41
					41:leaf=-0.322034121
					42:leaf=-0.312048614
			10:[f5<6] yes=21,no=22,missing=22
				21:[f7<6] yes=43,no=44,missing=43
					43:leaf=-0.272112459
					44:leaf=-0.255164653
				22:[f5<81] yes=45,no=46,missing=45
					45:leaf=-0.283694834
					46:leaf=-0.170523643
	2:[f0<11] yes=5,no=6,missing=6
		5:[f1<2.00001001] yes=11,no=12,missing=12
			11:[f2<8] yes=23,no=24,missing=24
				23:[f5<88] yes=47,no=48,missing=48
					47:leaf=-0.0236249138
					48:leaf=0.0150160082
				24:[f7<43] yes=49,no=50,missing=49
					49:leaf=-0.000156563299
					50:leaf=0.021704942
			12:[f2<2] yes=25,no=26,missing=26
				25:[f0<10] yes=51,no=52,missing=52
					51:leaf=0.0985311419
					52:leaf=0.0383262075
				26:[f0<10] yes=53,no=54,missing=54
					53:leaf=0.159123272
					54:leaf=0.112671159
		6:[f0<12] yes=13,no=14,missing=14
			13:[f2<2] yes=27,no=28,missing=28
				27:[f5<2] yes=55,no=56,missing=56
					55:leaf=-0.362570077
					56:leaf=-0.387866288
				28:[f2<12] yes=57,no=58,missing=58
					57:leaf=-0.340302944
					58:leaf=-0.324519992
			14:[f5<2] yes=29,no=30,missing=30
				29:[f6<2.00001001] yes=59,no=60,missing=60
					59:leaf=0.0452917665
					60:leaf=-0.0396222584
				30:[f1<2.00001001] yes=61,no=62,missing=62
					61:leaf=-0.033792112
					62:leaf=0.00058941351
booster[12]:
0:[f0<35] yes=1,no=2,missing=2
	1:[f0<33] yes=3,no=4,missing=4
		3:[f0<32] yes=7,no=8,missing=8
			7:[f2<6] yes=15,no=16,missing=16
				15:[f0<21] yes=31,no=32,missing=32
					31:leaf=-0.00324142911
					32:leaf=-0.0551489256
				16:[f0<22] yes=33,no=34,missing=34
					33:leaf=-0.0604885332
					34:leaf=0.0755726993
			8:[f2<5] yes=17,no=18,missing=18
				17:[f1<2.00001001] yes=35,no=36,missing=36
					35:leaf=-0.05838589
					36:leaf=0.0969996229
				18:[f1<2.00001001] yes=37,no=38,missing=38
					37:leaf=-0.0636513457
					38:leaf=0.456864327
		4:[f2<60] yes=9,no=10,missing=10
			9:[f0<34] yes=19,no=20,missing=20
				19:[f2<3] yes=39,no=40,missing=40
					39:leaf=0.137057409
					40:leaf=0.41058144
				20:[f2<5] yes=41,no=42,missing=42
					41:leaf=-0.244767427
					42:leaf=-0.014021731
			10:[f5<2] yes=21,no=22,missing=22
				21:leaf=-0.348011911
				22:leaf=-0.364693463
	2:[f0<40] yes=5,no=6,missing=6
		5:[f2<3] yes=11,no=12,missing=12
			11:[f0<39] yes=23,no=24,missing=24
				23:[f0<36] yes=43,no=44,missing=44
					43:leaf=0.0958480835
					44:leaf=0.0113602653
				24:[f5<2] yes=45,no=46,missing=46
					45:leaf=0.229213759
					46:leaf=0.1804692
			12:[f2<6] yes=25,no=26,missing=26
				25:[f0<37] yes=47,no=48,missing=48
					47:leaf=0.0927837193
					48:leaf=0.20433192
				26:[f1<2.00001001] yes=49,no=50,missing=50
					49:leaf=0.108200558
					50:leaf=0.442806005
		6:[f0<49] yes=13,no=14,missing=14
			13:[f0<48] yes=27,no=28,missing=28
				27:[f0<41] yes=51,no=52,missing=52
					51:leaf=0.041766841
					52:leaf=-0.0893034711
				28:[f2<3] yes=53,no=54,missing=54
					53:leaf=-0.15405342
					54:leaf=-0.282275945
			14:[f0<56] yes=29,no=30,missing=30
				29:[f0<52] yes=55,no=56,missing=56
					55:leaf=0.113355018
					56:leaf=0.0621853955
				30:[f0<665] yes=57,no=58,missing=57
					57:leaf=-0.00924709998
					58:leaf=0.0102563864
booster[13]:
0:[f5<141] yes=1,no=2,missing=2
	1:[f0<29] yes=3,no=4,missing=3
		3:[f0<28] yes=7,no=8,missing=7
			7:[f2<3] yes=15,no=16,missing=16
				15:[f0<14] yes=31,no=32,missing=31
					31:leaf=0.000554338389
					32:leaf=-0.0494607277
				16:[f0<17] yes=33,no=34,missing=34
					33:leaf=-0.0186608043
					34:leaf=-0.079030171
			8:[f2<2] yes=17,no=18,missing=18
				17:[f7<2] yes=35,no=36,missing=36
					35:leaf=0.174283534
					36:leaf=-0.105150066
				18:[f6<2.00001001] yes=37,no=38,missing=38
					37:leaf=-0.163323313
					38:leaf=-0.259985447
		4:[f0<41] yes=9,no=10,missing=10
			9:[f0<38] yes=19,no=20,missing=20
				19:[f0<33] yes=39,no=40,missing=40
					39:leaf=0.0488702618
					40:leaf=-0.0271455031
				20:[f2<5] yes=41,no=42,missing=42
					41:leaf=0.0911236554
					42:leaf=0.274532855
			10:[f0<49] yes=21,no=22,missing=22
				21:[f0<45] yes=43,no=44,missing=44
					43:leaf=-0.047646869
					44:leaf=-0.142503306
				22:[f0<79] yes=45,no=46,missing=46
					45:leaf=0.0294521712
					46:leaf=-0.00416118884
	2:[f0<5] yes=5,no=6,missing=5
		5:[f2<3] yes=11,no=12,missing=12
			11:[f1<2.00001001] yes=23,no=24,missing=24
				23:[f0<2] yes=47,no=48,missing=48
					47:leaf=-0.157547265
					48:leaf=-0.0496990457
				24:[f2<2] yes=49,no=50,missing=50
					49:leaf=0.0514727049
					50:leaf=0.0770857036
			12:[f0<5] yes=25,no=26,missing=26
				25:[f2<7] yes=51,no=52,missing=51
					51:leaf=0.0216174405
					52:leaf=0.762405813
				26:[f2<4] yes=53,no=54,missing=54
					53:leaf=-0.0761399344
					54:leaf=0.0454390347
		6:[f0<13] yes=13,no=14,missing=14
			13:[f0<11] yes=27,no=28,missing=28
				27:[f0<9] yes=55,no=56,missing=56
					55:leaf=-0.00852071401
					56:leaf=0.0362083912
				28:[f2<4] yes=57,no=58,missing=57
					57:leaf=-0.197993293
					58:leaf=0.024126159
			14:[f0<14] yes=29,no=30,missing=30
				29:[f2<3] yes=59,no=60,missing=60
					59:leaf=0.0812121183
					60:leaf=0.381333292
				30:[f0<19] yes=61,no=62,missing=62
					61:leaf=-0.0959032848
					62:leaf=0.0133667579
booster[14]:
0:[f0<3] yes=1,no=2,missing=2
	1:[f0<2] yes=3,no=4,missing=4
		3:[f2<4] yes=7,no=8,missing=8
			7:[f6<2.00001001] yes=15,no=16,missing=16
				15:[f2<2] yes=31,no=32,missing=32
					31:leaf=0.0363621861
					32:leaf=0.0909877419
				16:[f5<6] yes=33,no=34,missing=34
					33:leaf=-0.0347971469
					34:leaf=0.011304291
			8:[f5<2] yes=17,no=18,missing=17
				17:[f7<5] yes=35,no=36,missing=35
					35:leaf=0.0471460558
					36:leaf=-0.0159164071
				18:[f6<2.00001001] yes=37,no=38,missing=38
					37:leaf=0.0207560901
					38:leaf=-0.0632326007
		4:[f2<24] yes=9,no=10,missing=10
			9:[f7<1924] yes=19,no=20,missing=20
				19:[f2<4] yes=39,no=40,missing=40
					39:leaf=-0.26754567
					40:leaf=-0.309634656
				20:[f5<64] yes=41,no=42,missing=41
					41:leaf=-0.287591994
					42:leaf=0.0811085999
			10:[f7<7] yes=21,no=22,missing=21
				21:[f5<29] yes=43,no=44,missing=43
					43:leaf=-0.179535806
					44:leaf=-0.156791806
				22:[f7<16] yes=45,no=46,missing=46
					45:leaf=-0.213570282
					46:leaf=-0.188367754
	2:[f7<2] yes=5,no=6,missing=6
		5:[f0<15] yes=11,no=12,missing=12
			11:[f0<14] yes=23,no=24,missing=24
				23:[f0<13] yes=47,no=48,missing=48
					47:leaf=0.011185497
					48:leaf=0.102604859
				24:leaf=-0.358197123
			12:[f0<18] yes=25,no=26,missing=26
				25:[f1<2.00001001] yes=49,no=50,missing=50
					49:leaf=-0.112430811
					50:leaf=0.339651108
				26:[f0<64] yes=51,no=52,missing=51
					51:leaf=0.0524657667
					52:leaf=0.0197423194
		6:[f0<2373] yes=13,no=14,missing=13
			13:[f5<120] yes=27,no=28,missing=28
				27:[f2<6] yes=53,no=54,missing=54
					53:leaf=-0.00420575263
					54:leaf=-0.021008566
				28:[f7<49] yes=55,no=56,missing=56
					55:leaf=4.43759245e-06
					56:leaf=0.0177304391
			14:[f2<19] yes=29,no=30,missing=30
				29:[f7<20] yes=57,no=58,missing=57
					57:leaf=-0.00199834304
					58:leaf=0.0172365792
				30:[f1<2.00001001] yes=59,no=60,missing=60
					59:leaf=-0.0150721725
					60:leaf=0.0366875939
booster[15]:
0:[f0<3] yes=1,no=2,missing=2
	1:[f0<2] yes=3,no=4,missing=4
		3:[f2<4] yes=7,no=8,missing=8
			7:[f7<3120] yes=15,no=16,missing=16
				15:[f2<2] yes=31,no=32,missing=32
					31:leaf=0.0309771281
					32:leaf=-0.00462205103
				16:[f5<2] yes=33,no=34,missing=34
					33:leaf=-0.189131901
					34:leaf=-0.288698971
			8:[f7<5] yes=17,no=18,missing=17
				17:[f5<2] yes=35,no=36,missing=36
					35:leaf=0.0828830451
					36:leaf=-0.00731186057
				18:[f2<9] yes=37,no=38,missing=37
					37:leaf=-0.0479125157
					38:leaf=0.423585802
		4:[f2<24] yes=9,no=10,missing=10
			9:[f7<3120] yes=19,no=20,missing=20
				19:[f5<9] yes=39,no=40,missing=40
					39:leaf=-0.247364461
					40:leaf=-0.255143464
				20:[f5<64] yes=41,no=42,missing=41
					41:leaf=-0.278351486
					42:leaf=0.0859863684
			10:[f5<34] yes=21,no=22,missing=21
				21:[f5<10] yes=43,no=44,missing=44
					43:leaf=-0.158808291
					44:leaf=-0.188188851
				22:[f5<46] yes=45,no=46,missing=46
					45:leaf=-0.133299306
					46:leaf=-0.16218482
	2:[f1<2.00001001] yes=5,no=6,missing=6
		5:[f0<8] yes=11,no=12,missing=12
			11:[f0<5] yes=23,no=24,missing=24
				23:[f0<4] yes=47,no=48,missing=48
					47:leaf=-0.097015731
					48:leaf=-0.0425521694
				24:[f2<4] yes=49,no=50,missing=50
					49:leaf=-0.106298529
					50:leaf=-0.14440693
			12:[f0<49] yes=25,no=26,missing=26
				25:[f0<43] yes=51,no=52,missing=52
					51:leaf=-0.00390244811
					52:leaf=0.0826092362
				26:[f0<85] yes=53,no=54,missing=53
					53:leaf=-0.0564522482
					54:leaf=-0.0188860036
		6:[f0<6] yes=13,no=14,missing=14
			13:[f2<2] yes=27,no=28,missing=28
				27:[f0<5] yes=55,no=56,missing=56
					55:leaf=-0.115339451
					56:leaf=-0.0196289234
				28:[f0<4] yes=57,no=58,missing=58
					57:leaf=0.0129995672
					58:leaf=0.04428114
			14:[f0<7] yes=29,no=30,missing=30
				29:[f2<3] yes=59,no=60,missing=60
					59:leaf=-0.0967747942
					60:leaf=-0.292359143
				30:[f0<9] yes=61,no=62,missing=62
					61:leaf=-0.0512243882
					62:leaf=0.000752468419
booster[16]:
0:[f7<2] yes=1,no=2,missing=2
	1:[f1<2.00001001] yes=3,no=4,missing=4
		3:[f0<6] yes=7,no=8,missing=7
			7:[f0<6] yes=15,no=16,missing=16
				15:[f0<4] yes=31,no=32,missing=32
					31:leaf=-0.162589341
					32:leaf=-0.0928177461
				16:[f5<61] yes=33,no=34,missing=33
					33:leaf=-0.0563760176
					34:leaf=0.00921967346
			8:[f0<172] yes=17,no=18,missing=18
				17:[f0<93] yes=35,no=36,missing=36
					35:leaf=-0.0151994107
					36:leaf=0.0431176014
				18:[f2<10] yes=37,no=38,missing=37
					37:leaf=-0.0206110161
					38:leaf=-0.165430009
		4:[f0<10] yes=9,no=10,missing=9
			9:[f0<6] yes=19,no=20,missing=19
				19:[f0<2] yes=39,no=40,missing=39
					39:leaf=0.0435266271
					40:leaf=-0.0449203141
				20:[f0<7] yes=41,no=42,missing=42
					41:leaf=0.241555035
					42:leaf=0.0687597021
			10:[f0<15] yes=21,no=22,missing=22
				21:[f0<14] yes=43,no=44,missing=44
					43:leaf=-0.0151721742
					44:leaf=-0.333304971
				22:[f0<30] yes=45,no=46,missing=46
					45:leaf=0.0909224898
					46:leaf=0.0169491377
	2:[f7<9] yes=5,no=6,missing=6
		5:[f2<2] yes=11,no=12,missing=12
			11:[f0<22] yes=23,no=24,missing=23
				23:[f0<2] yes=47,no=48,missing=48
					47:leaf=-0.357874721
					48:leaf=-0.229448572
				24:[f0<27] yes=49,no=50,missing=50
					49:leaf=0.0477045663
					50:leaf=-0.116015144
			12:[f0<3] yes=25,no=26,missing=25
				25:[f2<3] yes=51,no=52,missing=52
					51:leaf=-0.00649051461
					52:leaf=-0.0473066531
				26:[f5<2] yes=53,no=54,missing=54
					53:leaf=-0.0304642301
					54:leaf=-0.00362604647
		6:[f7<15] yes=13,no=14,missing=14
			13:[f2<82] yes=27,no=28,missing=28
				27:[f0<2] yes=55,no=56,missing=56
					55:leaf=0.175071925
					56:leaf=0.0233177114
				28:[f0<379] yes=57,no=58,missing=57
					57:leaf=-0.0892652497
					58:leaf=-0.0394564755
			14:[f7<20] yes=29,no=30,missing=30
				29:[f2<2] yes=59,no=60,missing=60
					59:leaf=-0.10546159
					60:leaf=-0.0025004046
				30:[f2<6] yes=61,no=62,missing=62
					61:leaf=0.00309871882
					62:leaf=-0.0105969319
booster[17]:
0:[f0<1925] yes=1,no=2,missing=1
	1:[f5<6] yes=3,no=4,missing=4
		3:[f0<3] yes=7,no=8,missing=8
			7:[f0<2] yes=15,no=16,missing=16
				15:[f2<3] yes=31,no=32,missing=32
					31:leaf=-0.0364377946
					32:leaf=-0.00378798018
				16:[f2<20] yes=33,no=34,missing=34
					33:leaf=-0.227977335
					34:leaf=-0.127481073
			8:[f0<6] yes=17,no=18,missing=18
				17:[f1<2.00001001] yes=35,no=36,missing=36
					35:leaf=-0.0742878765
					36:leaf=0.0221014638
				18:[f0<7] yes=37,no=38,missing=38
					37:leaf=-0.247856617
					38:leaf=-0.012522663
		4:[f5<8] yes=9,no=10,missing=9
			9:[f0<90] yes=19,no=20,missing=19
				19:[f2<3] yes=39,no=40,missing=40
					39:leaf=0.0257670376
					40:leaf=-0.00175376271
				20:[f0<93] yes=41,no=42,missing=42
					41:leaf=-0.214099571
					42:leaf=0.00386488764
			10:[f2<2] yes=21,no=22,missing=22
				21:[f0<16] yes=43,no=44,missing=44
					43:leaf=-0.0288996808
					44:leaf=0.00823021401
				22:[f0<9] yes=45,no=46,missing=45
					45:leaf=-0.0177924223
					46:leaf=-0.00258036191
	2:[f5<42] yes=5,no=6,missing=5
		5:[f2<19] yes=11,no=12,missing=12
			11:[f5<2] yes=23,no=24,missing=24
				23:[f7<2] yes=47,no=48,missing=48
					47:leaf=0.0439742059
					48:leaf=-0.00797059666
				24:[f7<51] yes=49,no=50,missing=49
					49:leaf=0.00798439234
					50:leaf=0.0169815477
			12:[f0<1981] yes=25,no=26,missing=26
				25:[f5<41] yes=51,no=52,missing=51
					51:leaf=0.0935528949
					52:leaf=0.376185626
				26:[f0<2473] yes=53,no=54,missing=54
					53:leaf=-0.000505063974
					54:leaf=0.0313407779
		6:[f5<45] yes=13,no=14,missing=14
			13:[f4<2.00001001] yes=27,no=28,missing=28
				27:[f0<4829] yes=55,no=56,missing=56
					55:leaf=0.0550248809
					56:leaf=0.0108388532
				28:[f5<43] yes=57,no=58,missing=58
					57:leaf=-0.0675605983
					58:leaf=-0.0343874283
			14:[f6<2.00001001] yes=29,no=30,missing=30
				29:[f5<61] yes=59,no=60,missing=60
					59:leaf=-0.00069374108
					60:leaf=-0.0247519128
				30:[f0<2042] yes=61,no=62,missing=62
					61:leaf=-0.0433539972
					62:leaf=0.00985483546
booster[18]:
0:[f0<857] yes=1,no=2,missing=1
	1:[f0<265] yes=3,no=4,missing=3
		3:[f0<225] yes=7,no=8,missing=7
			7:[f0<200] yes=15,no=16,missing=15
				15:[f0<191] yes=31,no=32,missing=31
					31:leaf=-0.0019175387
					32:leaf=0.0640442148
				16:[f2<2] yes=33,no=34,missing=34
					33:leaf=-0.0151416995
					34:leaf=-0.0724100024
			8:[f2<3] yes=17,no=18,missing=18
				17:[f0<258] yes=35,no=36,missing=36
					35:leaf=0.0107994275
					36:leaf=0.0783027038
				18:[f2<4] yes=37,no=38,missing=38
					37:leaf=0.156694457
					38:leaf=0.0619664975
		4:[f0<327] yes=9,no=10,missing=10
			9:[f0<319] yes=19,no=20,missing=20
				19:[f0<305] yes=39,no=40,missing=40
					39:leaf=-0.056969732
					40:leaf=0.00764949294
				20:[f2<4] yes=41,no=42,missing=41
					41:leaf=-0.0986007676
					42:leaf=-0.150414288
			10:[f0<364] yes=21,no=22,missing=22
				21:[f0<356] yes=43,no=44,missing=44
					43:leaf=0.0166945308
					44:leaf=0.148399174
				22:[f0<382] yes=45,no=46,missing=46
					45:leaf=-0.0603106506
					46:leaf=-0.00693860324
	2:[f0<919] yes=5,no=6,missing=6
		5:[f1<2.00001001] yes=11,no=12,missing=12
			11:[f2<6] yes=23,no=24,missing=23
				23:[f2<2] yes=47,no=48,missing=48
					47:leaf=-0.0297129396
					48:leaf=0.0102561768
				24:[f5<10] yes=49,no=50,missing=50
					49:leaf=-0.0642898381
					50:leaf=0.380529135
			12:[f2<3] yes=25,no=26,missing=25
				25:[f0<897] yes=51,no=52,missing=52
					51:leaf=0.0401597694
					52:leaf=0.0175693352
				26:[f0<898] yes=53,no=54,missing=54
					53:leaf=0.0401065536
					54:leaf=0.0713474825
		6:[f5<35] yes=13,no=14,missing=13
			13:[f1<2.00001001] yes=27,no=28,missing=28
				27:[f0<2251] yes=55,no=56,missing=56
					55:leaf=-0.0295205452
					56:leaf=-0.00189858594
				28:[f5<29] yes=57,no=58,missing=57
					57:leaf=0.00734942686
					58:leaf=0.0292720012
			14:[f4<2.00001001] yes=29,no=30,missing=30
				29:[f2<18] yes=59,no=60,missing=60
					59:leaf=0.0278290529
					60:leaf=0.0884938762
				30:[f0<2245] yes=61,no=62,missing=62
					61:leaf=-0.0142963165
					62:leaf=-0.00172522978
booster[19]:
0:[f5<16] yes=1,no=2,missing=2
	1:[f2<2] yes=3,no=4,missing=4
		3:[f7<3120] yes=7,no=8,missing=8
			7:[f0<16] yes=15,no=16,missing=16
				15:[f0<14] yes=31,no=32,missing=32
					31:leaf=0.00567631144
					32:leaf=-0.313294619
				16:[f0<17] yes=33,no=34,missing=34
					33:leaf=0.28658694
					34:leaf=0.00691367919
			8:[f0<46] yes=17,no=18,missing=17
				17:[f0<6] yes=35,no=36,missing=35
					35:leaf=-0.180217355
					36:leaf=-0.270078689
				18:[f1<2.00001001] yes=37,no=38,missing=38
					37:leaf=-0.049260091
					38:leaf=-0.156687737
		4:[f0<3] yes=9,no=10,missing=9
			9:[f0<2] yes=19,no=20,missing=19
				19:[f6<2.00001001] yes=39,no=40,missing=40
					39:leaf=0.0301354863
					40:leaf=-0.0234516449
				20:[f5<5] yes=41,no=42,missing=42
					41:leaf=-0.104061134
					42:leaf=-0.142004862
			10:[f0<6] yes=21,no=22,missing=22
				21:[f1<2.00001001] yes=43,no=44,missing=44
					43:leaf=-0.054039374
					44:leaf=0.0181573816
				22:[f0<9] yes=45,no=46,missing=46
					45:leaf=-0.228403434
					46:leaf=-0.0050274469
	2:[f5<42] yes=5,no=6,missing=5
		5:[f1<2.00001001] yes=11,no=12,missing=12
			11:[f0<8] yes=23,no=24,missing=24
				23:[f2<4] yes=47,no=48,missing=48
					47:leaf=-0.0995612219
					48:leaf=-0.054484766
				24:[f0<156] yes=49,no=50,missing=50
					49:leaf=0.00265573547
					50:leaf=-0.0179003477
			12:[f7<49] yes=25,no=26,missing=26
				25:[f7<15] yes=51,no=52,missing=52
					51:leaf=0.00527075166
					52:leaf=-0.00617399672
				26:[f7<76] yes=53,no=54,missing=54
					53:leaf=0.0328732133
					54:leaf=0.00663563842
		6:[f5<51] yes=13,no=14,missing=14
			13:[f0<14] yes=27,no=28,missing=28
				27:[f0<13] yes=55,no=56,missing=56
					55:leaf=-0.00278252852
					56:leaf=0.199743539
				28:[f0<15] yes=57,no=58,missing=58
					57:leaf=-0.349191517
					58:leaf=-0.0186080113
			14:[f0<17] yes=29,no=30,missing=30
				29:[f0<16] yes=59,no=60,missing=60
					59:leaf=0.0196868032
					60:leaf=0.317894608
				30:[f0<19] yes=61,no=62,missing=62
					61:leaf=-0.292344511
					62:leaf=-0.000376795913
booster[20]:
0:[f4<2.00001001] yes=1,no=2,missing=2
	1:[f5<2] yes=3,no=4,missing=3
		3:[f2<8] yes=7,no=8,missing=8
			7:[f0<48] yes=15,no=16,missing=16
				15:[f7<591] yes=31,no=32,missing=31
					31:leaf=0.335813195
					32:leaf=0.0869607851
				16:[f2<2] yes=33,no=34,missing=34
					33:leaf=0.216715991
					34:leaf=0.137775913
			8:[f7<81] yes=17,no=18,missing=17
				17:[f7<64] yes=35,no=36,missing=35
					35:leaf=0.350769639
					36:leaf=-0.170690015
				18:[f0<2] yes=37,no=38,missing=38
					37:leaf=0.0621177629
					38:leaf=0.62199229
		4:[f2<7] yes=9,no=10,missing=10
			9:[f0<19] yes=19,no=20,missing=19
				19:[f0<14] yes=39,no=40,missing=39
					39:leaf=0.024491312
					40:leaf=-0.234404519
				20:[f0<26] yes=41,no=42,missing=42
					41:leaf=0.128196523
					42:leaf=0.0322067365
			10:[f5<74] yes=21,no=22,missing=22
				21:[f0<822] yes=43,no=44,missing=44
					43:leaf=0.139252126
					44:leaf=0.0716323853
				22:[f0<4] yes=45,no=46,missing=45
					45:leaf=-0.226280287
					46:leaf=0.0102601973
	2:[f5<2] yes=5,no=6,missing=6
		5:[f6<2.00001001] yes=11,no=12,missing=12
			11:[f0<91] yes=23,no=24,missing=23
				23:[f2<3] yes=47,no=48,missing=48
					47:leaf=0.112313449
					48:leaf=0.0539299436
				24:[f0<94] yes=49,no=50,missing=50
					49:leaf=-0.280119032
					50:leaf=0.0214919411
			12:[f7<2] yes=25,no=26,missing=26
				25:[f1<2.00001001] yes=51,no=52,missing=52
					51:leaf=-0.0424987674
					52:leaf=0.0418770351
				26:[f2<5] yes=53,no=54,missing=53
					53:leaf=-0.0172984097
					54:leaf=-0.0914825648
		6:[f2<9] yes=13,no=14,missing=13
			13:[f7<51] yes=27,no=28,missing=28
				27:[f7<2] yes=55,no=56,missing=56
					55:leaf=0.0079534892
					56:leaf=-0.00526857795
				28:[f7<76] yes=57,no=58,missing=58
					57:leaf=0.0273083691
					58:leaf=-0.000161042597
			14:[f2<10] yes=29,no=30,missing=30
				29:[f1<2.00001001] yes=59,no=60,missing=60
					59:leaf=-0.00660862168
					60:leaf=0.171582103
				30:[f0<39] yes=61,no=62,missing=62
					61:leaf=0.105823748
					62:leaf=0.00237033889
booster[21]:
0:[f0<14] yes=1,no=2,missing=2
	1:[f0<13] yes=3,no=4,missing=4
		3:[f0<10] yes=7,no=8,missing=8
			7:[f0<9] yes=15,no=16,missing=16
				15:[f0<8] yes=31,no=32,missing=32
					31:leaf=0.00508691138
					32:leaf=-0.282204539
				16:[f2<3] yes=33,no=34,missing=34
					33:leaf=0.0606282651
					34:leaf=0.136823624
			8:[f2<2] yes=17,no=18,missing=17
				17:[f2<2] yes=35,no=36,missing=36
					35:leaf=-0.0645529479
					36:leaf=-0.195120662
				18:[f1<2.00001001] yes=37,no=38,missing=38
					37:leaf=-0.0302015189
					38:leaf=0.0692540556
		4:[f2<5] yes=9,no=10,missing=10
			9:[f5<107] yes=19,no=20,missing=20
				19:[f2<2] yes=39,no=40,missing=40
					39:leaf=0.119607829
					40:leaf=0.218373403
				20:[f2<2] yes=41,no=42,missing=42
					41:leaf=0.0206132941
					42:leaf=0.097154513
			10:[f1<2.00001001] yes=21,no=22,missing=22
				21:[f5<85] yes=43,no=44,missing=44
					43:leaf=-0.00112041412
					44:leaf=-0.146197051
				22:[f5<105] yes=45,no=46,missing=46
					45:leaf=0.600121379
					46:leaf=0.296792954
	2:[f0<15] yes=5,no=6,missing=6
		5:[f7<8] yes=11,no=12,missing=11
			11:[f2<2] yes=23,no=24,missing=23
				23:[f7<6] yes=47,no=48,missing=48
					47:leaf=-0.304351062
					48:leaf=-0.319007725
				24:[f5<3] yes=49,no=50,missing=49
					49:leaf=-0.0766135231
					50:leaf=-0.346481293
			12:[f2<27] yes=25,no=26,missing=26
				25:[f5<42] yes=51,no=52,missing=51
					51:leaf=-0.344514638
					52:leaf=-0.330231667
				26:[f5<43] yes=53,no=54,missing=53
					53:leaf=-0.317163438
					54:leaf=-0.291551352
		6:[f0<17] yes=13,no=14,missing=14
			13:[f0<16] yes=27,no=28,missing=28
				27:[f2<2] yes=55,no=56,missing=55
					55:leaf=-0.165612414
					56:leaf=0.128398046
				28:[f1<2.00001001] yes=57,no=58,missing=58
					57:leaf=-0.1677652
					58:leaf=0.301542133
			14:[f0<19] yes=29,no=30,missing=30
				29:[f2<4] yes=59,no=60,missing=59
					59:leaf=-0.257652164
					60:leaf=-0.0322416276
				30:[f0<21] yes=61,no=62,missing=62
					61:leaf=0.103534259
					62:leaf=-0.000837375468
booster[22]:
0:[f0<632] yes=1,no=2,missing=1
	1:[f0<402] yes=3,no=4,missing=3
		3:[f0<384] yes=7,no=8,missing=7
			7:[f0<367] yes=15,no=16,missing=15
				15:[f0<344] yes=31,no=32,missing=31
					31:leaf=-0.00157628872
					32:leaf=0.046590928
				16:[f2<5] yes=33,no=34,missing=34
					33:leaf=0.0248781238
					34:leaf=-0.164220378
			8:[f2<5] yes=17,no=18,missing=18
				17:[f5<2] yes=35,no=36,missing=36
					35:leaf=-0.0645256713
					36:leaf=0.0521735884
				18:[f1<2.00001001] yes=37,no=38,missing=38
					37:leaf=-0.0169357453
					38:leaf=0.242463797
		4:[f0<428] yes=9,no=10,missing=10
			9:[f2<4] yes=19,no=20,missing=19
				19:[f2<4] yes=39,no=40,missing=40
					39:leaf=-0.079959169
					40:leaf=0.0401332416
				20:[f0<419] yes=41,no=42,missing=42
					41:leaf=-0.166716993
					42:leaf=-0.291836143
			10:[f0<457] yes=21,no=22,missing=22
				21:[f0<448] yes=43,no=44,missing=44
					43:leaf=0.0052802735
					44:leaf=0.125719547
				22:[f0<618] yes=45,no=46,missing=46
					45:leaf=-0.0147255091
					46:leaf=-0.0667470545
	2:[f0<754] yes=5,no=6,missing=6
		5:[f0<737] yes=11,no=12,missing=12
			11:[f0<721] yes=23,no=24,missing=24
				23:[f2<3] yes=47,no=48,missing=47
					47:leaf=0.0212843101
					48:leaf=0.0466875806
				24:[f2<7] yes=49,no=50,missing=50
					49:leaf=0.0179569758
					50:leaf=-0.106285498
			12:[f2<4] yes=25,no=26,missing=25
				25:[f2<3] yes=51,no=52,missing=52
					51:leaf=0.0432772152
					52:leaf=0.0868496373
				26:[f2<5] yes=53,no=54,missing=54
					53:leaf=-0.14966999
					54:leaf=0.089189738
		6:[f0<788] yes=13,no=14,missing=14
			13:[f2<3] yes=27,no=28,missing=28
				27:[f5<2] yes=55,no=56,missing=55
					55:leaf=-0.132472247
					56:leaf=-0.0657546371
				28:[f0<787] yes=57,no=58,missing=58
					57:leaf=0.0080641266
					58:leaf=-0.281298995
			14:[f0<842] yes=29,no=30,missing=30
				29:[f2<4] yes=59,no=60,missing=59
					59:leaf=0.0334474482
					60:leaf=-0.130963087
				30:[f0<861] yes=61,no=62,missing=62
					61:leaf=-0.0831123292
					62:leaf=0.00445442367
booster[23]:
0:[f2<6] yes=1,no=2,missing=2
	1:[f0<154] yes=3,no=4,missing=4
		3:[f0<150] yes=7,no=8,missing=8
			7:[f0<35] yes=15,no=16,missing=16
				15:[f0<34] yes=31,no=32,missing=32
					31:leaf=0.00130623509
					32:leaf=-0.138876826
				16:[f0<40] yes=33,no=34,missing=34
					33:leaf=0.0548952147
					34:leaf=0.00624069246
			8:[f7<3120] yes=17,no=18,missing=18
				17:[f2<3] yes=35,no=36,missing=36
					35:leaf=0.121626236
					36:leaf=0.212500185
				18:[f2<2] yes=37,no=38,missing=38
					37:leaf=-0.346749306
					38:leaf=0.125714734
		4:[f0<179] yes=9,no=10,missing=10
			9:[f0<170] yes=19,no=20,missing=20
				19:[f0<162] yes=39,no=40,missing=40
					39:leaf=-0.0408837833
					40:leaf=0.0316213407
				20:[f0<175] yes=41,no=42,missing=42
					41:leaf=-0.084905535
					42:leaf=-0.181156024
			10:[f0<188] yes=21,no=22,missing=22
				21:[f1<2.00001001] yes=43,no=44,missing=44
					43:leaf=-0.0402632877
					44:leaf=0.0806251317
				22:[f0<192] yes=45,no=46,missing=46
					45:leaf=-0.112242289
					46:leaf=-0.000549596443
	2:[f0<179] yes=5,no=6,missing=5
		5:[f0<90] yes=11,no=12,missing=12
			11:[f0<69] yes=23,no=24,missing=24
				23:[f0<42] yes=47,no=48,missing=48
					47:leaf=-0.00315436418
					48:leaf=-0.0469721369
				24:[f1<2.00001001] yes=49,no=50,missing=50
					49:leaf=-0.104502298
					50:leaf=0.115212254
			12:[f0<93] yes=25,no=26,missing=26
				25:[f2<36] yes=51,no=52,missing=52
					51:leaf=0.0903070718
					52:leaf=-0.325075746
				26:[f0<107] yes=53,no=54,missing=54
					53:leaf=0.130225495
					54:leaf=-0.0610379204
		6:[f0<207] yes=13,no=14,missing=14
			13:[f2<7] yes=27,no=28,missing=28
				27:[f0<192] yes=55,no=56,missing=56
					55:leaf=-0.24036102
					56:leaf=-0.0150266727
				28:[f1<2.00001001] yes=57,no=58,missing=58
					57:leaf=-0.0255299266
					58:leaf=0.0928051248
			14:[f0<232] yes=29,no=30,missing=30
				29:[f2<45] yes=59,no=60,missing=60
					59:leaf=0.0714956224
					60:leaf=-0.051512368
				30:[f0<273] yes=61,no=62,missing=62
					61:leaf=0.0574218184
					62:leaf=-0.00138426642
booster[24]:
0:[f0<11] yes=1,no=2,missing=2
	1:[f0<9] yes=3,no=4,missing=4
		3:[f0<6] yes=7,no=8,missing=8
			7:[f0<3] yes=15,no=16,missing=16
				15:[f0<2] yes=31,no=32,missing=32
					31:leaf=0.000632101845
					32:leaf=-0.136119559
				16:[f1<2.00001001] yes=33,no=34,missing=34
					33:leaf=-0.0457367711
					34:leaf=0.0170562603
			8:[f2<3] yes=17,no=18,missing=18
				17:[f7<3120] yes=35,no=36,missing=36
					35:leaf=0.0483557843
					36:leaf=-0.418986231
				18:[f2<5] yes=37,no=38,missing=37
					37:leaf=-0.196882233
					38:leaf=0.141234741
		4:[f5<73] yes=9,no=10,missing=10
			9:[f2<3] yes=19,no=20,missing=20
				19:[f1<2.00001001] yes=39,no=40,missing=40
					39:leaf=-0.0027943796
					40:leaf=0.0623384416
				20:[f1<2.00001001] yes=41,no=42,missing=42
					41:leaf=0.0428427011
					42:leaf=0.100919113
			10:[f2<3] yes=21,no=22,missing=22
				21:[f0<10] yes=43,no=44,missing=44
					43:leaf=-0.0562552512
					44:leaf=0.00523165381
				22:[f1<2.00001001] yes=45,no=46,missing=46
					45:leaf=-0.000927005429
					46:leaf=0.0641214475
	2:[f0<12] yes=5,no=6,missing=6
		5:[f2<6] yes=11,no=12,missing=12
			11:[f2<2] yes=23,no=24,missing=24
				23:[f5<2] yes=47,no=48,missing=48
					47:leaf=-0.335897297
					48:leaf=-0.348065317
				24:leaf=-0.328973234
			12:[f2<34] yes=25,no=26,missing=26
				25:[f7<1930] yes=49,no=50,missing=49
					49:leaf=-0.321020871
					50:leaf=-0.147424921
				26:[f5<14] yes=51,no=52,missing=52
					51:leaf=-0.299317718
					52:leaf=-0.305500031
		6:[f0<22] yes=13,no=14,missing=14
			13:[f0<21] yes=27,no=28,missing=28
				27:[f2<4] yes=53,no=54,missing=53
					53:leaf=-0.0203612223
					54:leaf=0.109685689
				28:[f7<2] yes=55,no=56,missing=56
					55:leaf=0.360835612
					56:leaf=-0.325657517
			14:[f0<26] yes=29,no=30,missing=30
				29:[f2<5] yes=57,no=58,missing=58
					57:leaf=0.0648781732
					58:leaf=0.254404753
				30:[f0<27] yes=59,no=60,missing=60
					59:leaf=-0.356413513
					60:leaf=-0.000131164081
booster[25]:
0:[f1<2.00001001] yes=1,no=2,missing=2
	1:[f2<4] yes=3,no=4,missing=3
		3:[f0<8] yes=7,no=8,missing=8
			7:[f2<3] yes=15,no=16,missing=16
				15:[f0<3] yes=31,no=32,missing=32
					31:leaf=-0.176740289
					32:leaf=-0.0649299473
				16:[f0<5] yes=33,no=34,missing=34
					33:leaf=-0.0253943205
					34:leaf=-0.0645353869
			8:[f0<155] yes=17,no=18,missing=18
				17:[f0<91] yes=35,no=36,missing=36
					35:leaf=-0.0102647264
					36:leaf=0.0374834985
				18:[f0<17145] yes=37,no=38,missing=37
					37:leaf=-0.0129554234
					38:leaf=0.101998098
		4:[f0<4] yes=9,no=10,missing=10
			9:[f2<5] yes=19,no=20,missing=20
				19:[f5<67] yes=39,no=40,missing=39
					39:leaf=-0.29205662
					40:leaf=-0.1391038
				20:[f5<14] yes=41,no=42,missing=41
					41:leaf=0.0597377233
					42:leaf=-0.11792592
			10:[f0<5] yes=21,no=22,missing=21
				21:[f5<6] yes=43,no=44,missing=44
					43:leaf=0.024693381
					44:leaf=-0.004788897
				22:[f2<5] yes=45,no=46,missing=46
					45:leaf=-0.0982197747
					46:leaf=-0.0318214297
	2:[f7<2] yes=5,no=6,missing=5
		5:[f2<6] yes=11,no=12,missing=12
			11:[f7<2] yes=23,no=24,missing=24
				23:[f0<2] yes=47,no=48,missing=48
					47:leaf=0.0726293474
					48:leaf=0.00673810719
				24:[f2<4] yes=49,no=50,missing=50
					49:leaf=-0.14330925
					50:leaf=-0.00595337478
			12:[f0<3] yes=25,no=26,missing=25
				25:[f0<2] yes=51,no=52,missing=52
					51:leaf=0.0103800809
					52:leaf=-0.050993491
				26:[f0<91] yes=53,no=54,missing=54
					53:leaf=0.036872495
					54:leaf=0.0136956153
		6:[f2<204.000015] yes=13,no=14,missing=14
			13:[f7<9] yes=27,no=28,missing=28
				27:[f2<2] yes=55,no=56,missing=56
					55:leaf=-0.120701656
					56:leaf=-0.00419772975
				28:[f7<15] yes=57,no=58,missing=58
					57:leaf=0.0191084035
					58:leaf=0.00122665567
			14:[f0<189] yes=29,no=30,missing=29
				29:[f0<91] yes=59,no=60,missing=60
					59:leaf=-0.00690449076
					60:leaf=-0.0571630225
				30:[f0<204] yes=61,no=62,missing=62
					61:leaf=0.134346381
					62:leaf=-0.000660264981
booster[26]:
0:[f5<73] yes=1,no=2,missing=1
	1:[f5<58] yes=3,no=4,missing=4
		3:[f5<42] yes=7,no=8,missing=8
			7:[f5<29] yes=15,no=16,missing=16
				15:[f2<2] yes=31,no=32,missing=32
					31:leaf=0.00295756245
					32:leaf=-0.00452705799
				16:[f5<32] yes=33,no=34,missing=34
					33:leaf=0.021795528
					34:leaf=0.00164293137
			8:[f5<45] yes=17,no=18,missing=18
				17:[f4<2.00001001] yes=35,no=36,missing=36
					35:leaf=0.0126980385
					36:leaf=-0.0303013604
				18:[f5<53] yes=37,no=38,missing=38
					37:leaf=0.000539182976
					38:leaf=-0.0173904374
		4:[f5<72] yes=9,no=10,missing=9
			9:[f2<2] yes=19,no=20,missing=20
				19:[f5<60] yes=39,no=40,missing=39
					39:leaf=-0.00334884576
					40:leaf=0.0139717739
				20:[f0<91] yes=41,no=42,missing=41
					41:leaf=0.0155687463
					42:leaf=0.00450788485
			10:[f1<2.00001001] yes=21,no=22,missing=22
				21:[f7<986] yes=43,no=44,missing=43
					43:leaf=0.0114653632
					44:leaf=-0.142325401
				22:[f2<2] yes=45,no=46,missing=45
					45:leaf=0.0794058815
					46:leaf=0.0435802191
	2:[f0<4] yes=5,no=6,missing=6
		5:[f0<3] yes=11,no=12,missing=12
			11:[f2<7] yes=23,no=24,missing=24
				23:[f5<76] yes=47,no=48,missing=48
					47:leaf=-0.0142545355
					48:leaf=-0.0833498016
				24:[f5<74] yes=49,no=50,missing=50
					49:leaf=-0.0654258281
					50:leaf=0.0430594608
			12:[f6<2.00001001] yes=25,no=26,missing=26
				25:[f5<105] yes=51,no=52,missing=52
					51:leaf=-0.00149001903
					52:leaf=-0.166989014
				26:[f5<107] yes=53,no=54,missing=54
					53:leaf=-0.111992337
					54:leaf=-0.231764391
		6:[f0<8] yes=13,no=14,missing=14
			13:[f2<6] yes=27,no=28,missing=28
				27:[f0<7] yes=55,no=56,missing=56
					55:leaf=0.0329994261
					56:leaf=0.0808158368
				28:[f0<5] yes=57,no=58,missing=58
					57:leaf=0.22661382
					58:leaf=0.0907832831
			14:[f0<19] yes=29,no=30,missing=30
				29:[f0<17] yes=59,no=60,missing=60
					59:leaf=-0.00789481029
					60:leaf=-0.302989721
				30:[f0<26] yes=61,no=62,missing=62
					61:leaf=0.0508446209
					62:leaf=-0.022772273
booster[27]:
0:[f0<2261] yes=1,no=2,missing=1
	1:[f0<91] yes=3,no=4,missing=3
		3:[f0<49] yes=7,no=8,missing=7
			7:[f0<41] yes=15,no=16,missing=15
				15:[f0<38] yes=31,no=32,missing=31
					31:leaf=-0.0017784544
					32:leaf=0.0668235123
				16:[f1<2.00001001] yes=33,no=34,missing=34
					33:leaf=0.0500991866
					34:leaf=-0.0706711337
			8:[f0<50] yes=17,no=18,missing=18
				17:[f2<2] yes=35,no=36,missing=36
					35:leaf=0.0587134697
					36:leaf=0.159370229
				18:[f1<2.00001001] yes=37,no=38,missing=38
					37:leaf=-0.0386918858
					38:leaf=0.0205219239
		4:[f0<94] yes=9,no=10,missing=10
			9:[f1<2.00001001] yes=19,no=20,missing=20
				19:[f2<2] yes=39,no=40,missing=40
					39:leaf=0.165771961
					40:leaf=0.114801131
				20:[f2<2] yes=41,no=42,missing=41
					41:leaf=-0.262154728
					42:leaf=-0.138372391
			10:[f0<102] yes=21,no=22,missing=22
				21:[f0<99] yes=43,no=44,missing=44
					43:leaf=0.025008833
					44:leaf=0.0806978121
				22:[f0<117] yes=45,no=46,missing=46
					45:leaf=-0.064476572
					46:leaf=-0.000664869323
	2:[f2<3] yes=5,no=6,missing=6
		5:[f0<3797] yes=11,no=12,missing=12
			11:[f2<2] yes=23,no=24,missing=24
				23:[f6<2.00001001] yes=47,no=48,missing=48
					47:leaf=-0.00398617471
					48:leaf=0.0125541147
				24:[f0<3353] yes=49,no=50,missing=50
					49:leaf=-0.00497786794
					50:leaf=0.0110525666
			12:[f0<4169] yes=25,no=26,missing=26
				25:[f7<15] yes=51,no=52,missing=52
					51:leaf=-0.00704057002
					52:leaf=-0.027816033
				26:[f6<2.00001001] yes=53,no=54,missing=54
					53:leaf=-0.012171654
					54:leaf=0.000193978383
		6:[f1<2.00001001] yes=13,no=14,missing=14
			13:[f2<4] yes=27,no=28,missing=27
				27:[f0<3640] yes=55,no=56,missing=56
					55:leaf=-0.0123842945
					56:leaf=0.0092012696
				28:[f2<5] yes=57,no=58,missing=58
					57:leaf=-0.144546643
					58:leaf=-0.0474270694
			14:[f0<2418] yes=29,no=30,missing=30
				29:[f2<4] yes=59,no=60,missing=59
					59:leaf=0.0122100683
					60:leaf=-0.0915062577
				30:[f0<3353] yes=61,no=62,missing=62
					61:leaf=0.0302268714
					62:leaf=0.0132011743
booster[28]:
0:[f0<11] yes=1,no=2,missing=2
	1:[f0<9] yes=3,no=4,missing=4
		3:[f0<8] yes=7,no=8,missing=8
			7:[f0<7] yes=15,no=16,missing=16
				15:[f2<3] yes=31,no=32,missing=31
					31:leaf=-0.00680508325
					32:leaf=0.0149850426
				16:[f2<2] yes=33,no=34,missing=34
					33:leaf=0.0364512354
					34:leaf=0.17050761
			8:[f2<7] yes=17,no=18,missing=18
				17:[f5<14] yes=35,no=36,missing=36
					35:leaf=-0.23795712
					36:leaf=-0.25842607
				18:[f5<18] yes=37,no=38,missing=38
					37:leaf=-0.132149294
					38:leaf=-0.213757515
		4:[f5<73] yes=9,no=10,missing=10
			9:[f2<4] yes=19,no=20,missing=20
				19:[f1<2.00001001] yes=39,no=40,missing=40
					39:leaf=-0.0046739839
					40:leaf=0.0455102921
				20:[f1<2.00001001] yes=41,no=42,missing=42
					41:leaf=0.041039817
					42:leaf=0.0739682838
			10:[f2<3] yes=21,no=22,missing=22
				21:[f0<10] yes=43,no=44,missing=44
					43:leaf=-0.0402049385
					44:leaf=0.00363667705
				22:[f2<4] yes=45,no=46,missing=46
					45:leaf=0.0679101273
					46:leaf=0.0235486962
	2:[f0<12] yes=5,no=6,missing=6
		5:[f2<12] yes=11,no=12,missing=12
			11:[f2<2] yes=23,no=24,missing=24
				23:[f5<7] yes=47,no=48,missing=48
					47:leaf=-0.32533735
					48:leaf=-0.333140314
				24:leaf=-0.315405697
			12:[f5<14] yes=25,no=26,missing=26
				25:[f5<11] yes=49,no=50,missing=50
					49:leaf=-0.290970564
					50:leaf=-0.275167197
				26:[f5<40] yes=51,no=52,missing=51
					51:leaf=-0.297702789
					52:leaf=-0.281866819
		6:[f0<13] yes=13,no=14,missing=14
			13:[f2<3] yes=27,no=28,missing=28
				27:[f1<2.00001001] yes=53,no=54,missing=54
					53:leaf=-0.00288843317
					54:leaf=-0.117127836
				28:[f2<12] yes=55,no=56,missing=56
					55:leaf=-0.00789450947
					56:leaf=0.180003881
			14:[f0<14] yes=29,no=30,missing=30
				29:[f2<3] yes=57,no=58,missing=58
					57:leaf=0.0808325186
					58:leaf=0.239086553
				30:[f0<16] yes=59,no=60,missing=60
					59:leaf=-0.18885918
					60:leaf=3.0356694e-05
booster[29]:
0:[f4<2.00001001] yes=1,no=2,missing=2
	1:[f5<2] yes=3,no=4,missing=3
		3:[f2<2] yes=7,no=8,missing=7
			7:[f0<69] yes=15,no=16,missing=16
				15:[f0<20] yes=31,no=32,missing=32
					31:leaf=0.146793678
					32:leaf=0.254378855
				16:[f0<537] yes=33,no=34,missing=34
					33:leaf=0.11475908
					34:leaf=0.173998639
			8:[f0<390] yes=17,no=18,missing=17
				17:[f7<6] yes=35,no=36,missing=36
					35:leaf=0.0615357719
					36:leaf=0.159343287
				18:[f7<115] yes=37,no=38,missing=38
					37:leaf=0.0941711664
					38:leaf=0.00188126194
		4:[f0<61] yes=9,no=10,missing=9
			9:[f5<59] yes=19,no=20,missing=20
				19:[f5<43] yes=39,no=40,missing=40
					39:leaf=-0.00168107112
					40:leaf=-0.0868522674
				20:[f5<71] yes=41,no=42,missing=42
					41:leaf=0.0583357811
					42:leaf=-0.0414270498
			10:[f0<1483] yes=21,no=22,missing=22
				21:[f2<3] yes=43,no=44,missing=44
					43:leaf=0.0270014219
					44:leaf=0.0602366105
				22:[f5<7] yes=45,no=46,missing=46
					45:leaf=0.0770642012
					46:leaf=0.00811220054
	2:[f7<51] yes=5,no=6,missing=6
		5:[f7<28] yes=11,no=12,missing=12
			11:[f7<20] yes=23,no=24,missing=24
				23:[f7<18] yes=47,no=48,missing=48
					47:leaf=-0.000474500615
					48:leaf=-0.0525656678
				24:[f2<2] yes=49,no=50,missing=50
					49:leaf=0.0190091487
					50:leaf=-0.00886161067
			12:[f2<2] yes=25,no=26,missing=25
				25:[f7<43] yes=51,no=52,missing=52
					51:leaf=-0.0118306624
					52:leaf=-0.0774357617
				26:[f7<44] yes=53,no=54,missing=54
					53:leaf=-0.0102345236
					54:leaf=0.00880045816
		6:[f7<76] yes=13,no=14,missing=14
			13:[f2<6] yes=27,no=28,missing=28
				27:[f0<5] yes=55,no=56,missing=55
					55:leaf=0.0289511643
					56:leaf=0.00689441198
				28:[f7<63] yes=57,no=58,missing=58
					57:leaf=0.061718151
					58:leaf=0.0109982518
			14:[f7<80] yes=29,no=30,missing=30
				29:[f2<2] yes=59,no=60,missing=60
					59:leaf=-0.176031023
					60:leaf=-0.0407977253
				30:[f7<84] yes=61,no=62,missing=62
					61:leaf=0.0311317593
					62:leaf=-0.000118818753
booster[30]:
0:[f1<2.00001001] yes=1,no=2,missing=2
	1:[f0<23] yes=3,no=4,missing=3
		3:[f0<13] yes=7,no=8,missing=7
			7:[f0<10] yes=15,no=16,missing=15
				15:[f2<2] yes=31,no=32,missing=32
					31:leaf=-0.040490713
					32:leaf=-0.0100682359
				16:[f2<10] yes=33,no=34,missing=34
					33:leaf=-0.0161695313
					34:leaf=0.0704023317
			8:[f0<22] yes=17,no=18,missing=18
				17:[f0<16] yes=35,no=36,missing=36
					35:leaf=-0.0464270897
					36:leaf=-0.114674427
				18:[f2<7] yes=37,no=38,missing=38
					37:leaf=-0.00216115266
					38:leaf=-0.0613149516
		4:[f0<24] yes=9,no=10,missing=10
			9:[f2<6] yes=19,no=20,missing=20
				19:[f5<22] yes=39,no=40,missing=40
					39:leaf=0.20626305
					40:leaf=0.145532265
				20:[f5<67] yes=41,no=42,missing=42
					41:leaf=0.0614300482
					42:leaf=-0.0128373569
			10:[f2<10] yes=21,no=22,missing=21
				21:[f0<30] yes=43,no=44,missing=44
					43:leaf=-0.0455186926
					44:leaf=-0.00369841815
				22:[f0<80] yes=45,no=46,missing=46
					45:leaf=-0.227077737
					46:leaf=-0.0694426075
	2:[f2<9] yes=5,no=6,missing=5
		5:[f5<73] yes=11,no=12,missing=11
			11:[f5<57] yes=23,no=24,missing=24
				23:[f2<2] yes=47,no=48,missing=48
					47:leaf=0.00279327692
					48:leaf=-0.00247682212
				24:[f0<5] yes=49,no=50,missing=49
					49:leaf=0.0130902892
					50:leaf=0.00201170146
			12:[f5<82] yes=25,no=26,missing=26
				25:[f5<79] yes=51,no=52,missing=52
					51:leaf=-0.0152604207
					52:leaf=-0.0884613246
				26:[f0<4] yes=53,no=54,missing=54
					53:leaf=-0.0729559064
					54:leaf=0.00603333628
		6:[f0<8] yes=13,no=14,missing=13
			13:[f2<10] yes=27,no=28,missing=28
				27:[f0<8] yes=55,no=56,missing=56
					55:leaf=0.537204206
					56:leaf=0.353760302
				28:[f6<2.00001001] yes=57,no=58,missing=58
					57:leaf=0.184479505
					58:leaf=-0.0200913046
			14:[f0<15] yes=29,no=30,missing=30
				29:[f5<2] yes=59,no=60,missing=60
					59:leaf=0.238474965
					60:leaf=0.00124310539
				30:[f2<11] yes=61,no=62,missing=62
					61:leaf=0.147589207
					62:leaf=0.0244364291
booster[31]:
0:[f0<667] yes=1,no=2,missing=1
	1:[f0<264] yes=3,no=4,missing=3
		3:[f0<225] yes=7,no=8,missing=7
			7:[f0<200] yes=15,no=16,missing=15
				15:[f2<4] yes=31,no=32,missing=31
					31:leaf=-0.000756648602
					32:leaf=0.0125343809
				16:[f2<4] yes=33,no=34,missing=33
					33:leaf=-0.0253850892
					34:leaf=-0.0989033952
			8:[f2<3] yes=17,no=18,missing=17
				17:[f0<258] yes=35,no=36,missing=36
					35:leaf=0.010149627
					36:leaf=0.098258011
				18:[f0<236] yes=37,no=38,missing=38
					37:leaf=0.179239243
					38:leaf=0.0263398271
		4:[f0<326] yes=9,no=10,missing=10
			9:[f0<319] yes=19,no=20,missing=20
				19:[f0<305] yes=39,no=40,missing=40
					39:leaf=-0.0400707461
					40:leaf=0.00593329826
				20:[f2<4] yes=41,no=42,missing=41
					41:leaf=-0.0723594651
					42:leaf=-0.11093846
			10:[f0<398] yes=21,no=22,missing=22
				21:[f0<389] yes=43,no=44,missing=44
					43:leaf=0.00466227159
					44:leaf=0.0828297138
				22:[f0<434] yes=45,no=46,missing=46
					45:leaf=-0.0503111705
					46:leaf=-0.00148227019
	2:[f0<745] yes=5,no=6,missing=6
		5:[f0<729] yes=11,no=12,missing=12
			11:[f0<682] yes=23,no=24,missing=24
				23:[f2<6] yes=47,no=48,missing=47
					47:leaf=0.0614344515
					48:leaf=-0.0570108406
				24:[f2<4] yes=49,no=50,missing=49
					49:leaf=-0.00328722922
					50:leaf=0.11325448
			12:[f5<99] yes=25,no=26,missing=26
				25:[f2<4] yes=51,no=52,missing=52
					51:leaf=0.0715295002
					52:leaf=0.0300437454
				26:[f2<2] yes=53,no=54,missing=53
					53:leaf=0.109988756
					54:leaf=0.150208056
		6:[f0<778] yes=13,no=14,missing=14
			13:[f2<3] yes=27,no=28,missing=28
				27:[f0<762] yes=55,no=56,missing=56
					55:leaf=-0.0461569205
					56:leaf=-0.103368863
				28:[f0<762] yes=57,no=58,missing=58
					57:leaf=-0.0499056987
					58:leaf=0.047453817
			14:[f0<833] yes=29,no=30,missing=30
				29:[f2<4] yes=59,no=60,missing=59
					59:leaf=0.0291937925
					60:leaf=-0.0931667387
				30:[f0<851] yes=61,no=62,missing=62
					61:leaf=-0.0354696177
					62:leaf=0.0021536604
booster[32]:
0:[f0<35] yes=1,no=2,missing=2
	1:[f0<34] yes=3,no=4,missing=4
		3:[f0<17] yes=7,no=8,missing=8
			7:[f0<16] yes=15,no=16,missing=16
				15:[f0<14] yes=31,no=32,missing=32
					31:leaf=0.00279733143
					32:leaf=-0.15727596
				16:[f1<2.00001001] yes=33,no=34,missing=34
					33:leaf=-0.114659324
					34:leaf=0.159842521
			8:[f0<19] yes=17,no=18,missing=18
				17:[f0<18] yes=35,no=36,missing=36
					35:leaf=-0.266006559
					36:leaf=-0.146271959
				18:[f2<2] yes=37,no=38,missing=37
					37:leaf=0.0209360365
					38:leaf=-0.029917432
		4:[f2<5] yes=9,no=10,missing=10
			9:[f2<4] yes=19,no=20,missing=20
				19:[f7<15] yes=39,no=40,missing=39
					39:leaf=-0.150346696
					40:leaf=-0.061126586
				20:[f5<2] yes=41,no=42,missing=41
					41:leaf=-0.284597784
					42:leaf=-0.303273588
			10:[f5<4] yes=21,no=22,missing=22
				21:[f2<17] yes=43,no=44,missing=44
					43:leaf=0.0907755122
					44:leaf=0.37501207
				22:[f5<35] yes=45,no=46,missing=45
					45:leaf=0.0343874767
					46:leaf=-0.012541146
	2:[f0<42] yes=5,no=6,missing=6
		5:[f2<3] yes=11,no=12,missing=12
			11:[f0<40] yes=23,no=24,missing=24
				23:[f5<2] yes=47,no=48,missing=48
					47:leaf=0.0931999013
					48:leaf=0.0101705333
				24:[f5<100] yes=49,no=50,missing=50
					49:leaf=-0.0504677668
					50:leaf=-0.153301165
			12:[f2<7] yes=25,no=26,missing=26
				25:[f5<2] yes=51,no=52,missing=52
					51:leaf=0.151480466
					52:leaf=0.0658865422
				26:[f5<3] yes=53,no=54,missing=54
					53:leaf=0.232614264
					54:leaf=0.135440379
		6:[f0<44] yes=13,no=14,missing=14
			13:[f2<2] yes=27,no=28,missing=28
				27:[f7<15] yes=55,no=56,missing=56
					55:leaf=0.127259314
					56:leaf=-0.0997226462
				28:[f1<2.00001001] yes=57,no=58,missing=58
					57:leaf=0.12615487
					58:leaf=-0.216569558
			14:[f0<62] yes=29,no=30,missing=30
				29:[f0<61] yes=59,no=60,missing=60
					59:leaf=0.00906222034
					60:leaf=0.196036547
				30:[f0<64] yes=61,no=62,missing=62
					61:leaf=-0.085422039
					62:leaf=7.33033885e-05
booster[33]:
0:[f7<49] yes=1,no=2,missing=2
	1:[f7<43] yes=3,no=4,missing=4
		3:[f7<42] yes=7,no=8,missing=8
			7:[f7<15] yes=15,no=16,missing=16
				15:[f7<12] yes=31,no=32,missing=32
					31:leaf=-0.00144616724
					32:leaf=0.0150292264
				16:[f7<16] yes=33,no=34,missing=34
					33:leaf=-0.0415631235
					34:leaf=-0.00282398472
			8:[f0<2] yes=17,no=18,missing=18
				17:[f5<2] yes=35,no=36,missing=35
					35:leaf=0.130019188
					36:leaf=0.254019678
				18:[f0<53646] yes=37,no=38,missing=38
					37:leaf=0.0289391391
					38:leaf=0.0747566298
		4:[f2<2] yes=9,no=10,missing=10
			9:[f0<31] yes=19,no=20,missing=19
				19:[f7<47] yes=39,no=40,missing=40
					39:leaf=-0.255993336
					40:leaf=-0.0931630358
				20:[f5<66] yes=41,no=42,missing=42
					41:leaf=-0.0741535947
					42:leaf=-0.00975585636
			10:[f7<44] yes=21,no=22,missing=22
				21:[f0<58] yes=43,no=44,missing=44
					43:leaf=-0.094759725
					44:leaf=-0.0348055251
				22:[f2<3] yes=45,no=46,missing=46
					45:leaf=0.0178579036
					46:leaf=-0.0135096898
	2:[f7<76] yes=5,no=6,missing=6
		5:[f2<6] yes=11,no=12,missing=12
			11:[f0<2] yes=23,no=24,missing=23
				23:[f2<3] yes=47,no=48,missing=48
					47:leaf=0.0262649748
					48:leaf=-0.0324176215
				24:[f0<3] yes=49,no=50,missing=50
					49:leaf=-0.223873571
					50:leaf=0.0043657897
			12:[f0<3] yes=25,no=26,missing=26
				25:[f7<54] yes=51,no=52,missing=52
					51:leaf=0.00560214184
					52:leaf=-0.0469681695
				26:[f0<4] yes=53,no=54,missing=54
					53:leaf=0.0944696516
					54:leaf=0.0227232203
		6:[f7<80] yes=13,no=14,missing=14
			13:[f5<88] yes=27,no=28,missing=28
				27:[f0<9] yes=55,no=56,missing=56
					55:leaf=-0.130235851
					56:leaf=-0.0346030332
				28:[f0<91] yes=57,no=58,missing=57
					57:leaf=0.0279147048
					58:leaf=-0.00566797983
			14:[f7<84] yes=29,no=30,missing=30
				29:[f0<4] yes=59,no=60,missing=60
					59:leaf=0.0755176842
					60:leaf=0.0188420471
				30:[f7<85] yes=61,no=62,missing=62
					61:leaf=-0.0586009882
					62:leaf=0.000435732683
booster[34]:
0:[f5<42] yes=1,no=2,missing=1
	1:[f5<41] yes=3,no=4,missing=3
		3:[f5<16] yes=7,no=8,missing=8
			7:[f5<12] yes=15,no=16,missing=16
				15:[f5<7] yes=31,no=32,missing=32
					31:leaf=-0.00201231404
					32:leaf=0.00660967594
				16:[f5<15] yes=33,no=34,missing=34
					33:leaf=-0.00935108494
					34:leaf=-0.0251002964
			8:[f5<21] yes=17,no=18,missing=18
				17:[f5<20] yes=35,no=36,missing=36
					35:leaf=0.005047068
					36:leaf=0.0324288234
				18:[f5<29] yes=37,no=38,missing=38
					37:leaf=-0.00749216462
					38:leaf=0.00272354134
		4:[f1<2.00001001] yes=9,no=10,missing=10
			9:[f6<2.00001001] yes=19,no=20,missing=20
				19:[f2<5] yes=39,no=40,missing=39
					39:leaf=-0.000528545701
					40:leaf=0.201565981
				20:[f0<135] yes=41,no=42,missing=42
					41:leaf=-0.113658108
					42:leaf=-0.0474580862
			10:[f0<3] yes=21,no=22,missing=22
				21:[f0<2] yes=43,no=44,missing=44
					43:leaf=0.043617297
					44:leaf=-0.117057383
				22:[f2<3] yes=45,no=46,missing=46
					45:leaf=0.0320230536
					46:leaf=0.0639383271
	2:[f5<43] yes=5,no=6,missing=6
		5:[f2<43] yes=11,no=12,missing=12
			11:[f4<2.00001001] yes=23,no=24,missing=24
				23:[f0<76] yes=47,no=48,missing=47
					47:leaf=-0.0202190224
					48:leaf=0.0271510538
				24:[f0<8] yes=49,no=50,missing=50
					49:leaf=0.0284046363
					50:leaf=-0.0351178944
			12:[f4<2.00001001] yes=25,no=26,missing=26
				25:[f0<53646] yes=51,no=52,missing=52
					51:leaf=0.0372347198
					52:leaf=-0.287769198
				26:[f0<2] yes=53,no=54,missing=54
					53:leaf=0.0717333183
					54:leaf=-0.154710114
		6:[f0<8] yes=13,no=14,missing=14
			13:[f0<4] yes=27,no=28,missing=28
				27:[f0<2] yes=55,no=56,missing=56
					55:leaf=0.0176963601
					56:leaf=-0.0354554132
				28:[f2<5] yes=57,no=58,missing=58
					57:leaf=0.0151983751
					58:leaf=0.0814508423
			14:[f0<9] yes=29,no=30,missing=30
				29:[f5<103] yes=59,no=60,missing=60
					59:leaf=-0.220948026
					60:leaf=0.0173442457
				30:[f2<3] yes=61,no=62,missing=61
					61:leaf=-0.00536044175
					62:leaf=0.00640697218
booster[35]:
0:[f4<2.00001001] yes=1,no=2,missing=2
	1:[f5<2] yes=3,no=4,missing=3
		3:[f2<8] yes=7,no=8,missing=8
			7:[f2<2] yes=15,no=16,missing=16
				15:[f0<5515] yes=31,no=32,missing=31
					31:leaf=0.10684301
					32:leaf=0.0153769562
				16:[f2<3] yes=33,no=34,missing=34
					33:leaf=0.0403326862
					34:leaf=0.111500628
			8:[f0<4] yes=17,no=18,missing=18
				17:[f7<515] yes=35,no=36,missing=35
					35:leaf=-0.227789417
					36:leaf=0.318393677
				18:[f0<374] yes=37,no=38,missing=38
					37:leaf=0.314584553
					38:leaf=0.117541559
		4:[f2<17] yes=9,no=10,missing=10
			9:[f5<59] yes=19,no=20,missing=20
				19:[f5<43] yes=39,no=40,missing=40
					39:leaf=0.0136882588
					40:leaf=-0.0416763984
				20:[f5<66] yes=41,no=42,missing=42
					41:leaf=0.112898357
					42:leaf=0.0204471704
			10:[f5<74] yes=21,no=22,missing=22
				21:[f5<61] yes=43,no=44,missing=44
					43:leaf=0.0420146883
					44:leaf=0.11676944
				22:[f0<4] yes=45,no=46,missing=45
					45:leaf=-0.150739878
					46:leaf=0.00186752307
	2:[f5<69] yes=5,no=6,missing=5
		5:[f5<65] yes=11,no=12,missing=11
			11:[f5<61] yes=23,no=24,missing=23
				23:[f5<60] yes=47,no=48,missing=47
					47:leaf=-0.000156214039
					48:leaf=0.0454947986
				24:[f5<62] yes=49,no=50,missing=50
					49:leaf=-0.0371761732
					50:leaf=-0.00901760813
			12:[f5<67] yes=25,no=26,missing=26
				25:[f5<66] yes=51,no=52,missing=52
					51:leaf=0.017317405
					52:leaf=0.0352441445
				26:[f5<68] yes=53,no=54,missing=54
					53:leaf=-0.0126537327
					54:leaf=0.0294161644
		6:[f5<72] yes=13,no=14,missing=14
			13:[f0<41] yes=27,no=28,missing=28
				27:[f0<4] yes=55,no=56,missing=56
					55:leaf=-0.044549495
					56:leaf=0.0136363572
				28:[f0<54] yes=57,no=58,missing=58
					57:leaf=-0.153671518
					58:leaf=-0.0416163839
			14:[f5<73] yes=29,no=30,missing=30
				29:[f0<3] yes=59,no=60,missing=60
					59:leaf=-0.0137672061
					60:leaf=0.0489964671
				30:[f2<4] yes=61,no=62,missing=61
					61:leaf=-0.0103429742
					62:leaf=-0.0447046421
booster[36]:
0:[f0<2430] yes=1,no=2,missing=1
	1:[f0<26] yes=3,no=4,missing=4
		3:[f0<25] yes=7,no=8,missing=8
			7:[f0<22] yes=15,no=16,missing=16
				15:[f0<21] yes=31,no=32,missing=32
					31:leaf=0.00125437602
					32:leaf=-0.284196407
				16:[f2<4] yes=33,no=34,missing=33
					33:leaf=0.108635381
					34:leaf=-0.241865829
			8:[f2<3] yes=17,no=18,missing=18
				17:[f5<87] yes=35,no=36,missing=36
					35:leaf=0.137947798
					36:leaf=0.0300037283
				18:[f1<2.00001001] yes=37,no=38,missing=38
					37:leaf=-0.0558992401
					38:leaf=0.224919602
		4:[f0<27] yes=9,no=10,missing=10
			9:[f5<2] yes=19,no=20,missing=20
				19:leaf=-0.325630993
				20:[f2<2] yes=39,no=40,missing=40
					39:leaf=-0.363723963
					40:leaf=-0.339718401
			10:[f0<29] yes=21,no=22,missing=22
				21:[f2<2] yes=41,no=42,missing=42
					41:leaf=0.0213185269
					42:leaf=-0.117179558
				22:[f0<33] yes=43,no=44,missing=44
					43:leaf=0.0333870836
					44:leaf=-0.000626213383
	2:[f2<3] yes=5,no=6,missing=6
		5:[f0<3822] yes=11,no=12,missing=12
			11:[f0<3366] yes=23,no=24,missing=24
				23:[f7<3120] yes=45,no=46,missing=46
					45:leaf=-0.000256513158
					46:leaf=-0.0736272931
				24:[f1<2.00001001] yes=47,no=48,missing=48
					47:leaf=0.0449799709
					48:leaf=0.0129094711
			12:[f0<4184] yes=25,no=26,missing=26
				25:[f1<2.00001001] yes=49,no=50,missing=50
					49:leaf=0.0138577828
					50:leaf=-0.0192511138
				26:[f1<2.00001001] yes=51,no=52,missing=52
					51:leaf=0.016301658
					52:leaf=-0.0020243621
		6:[f0<2512] yes=13,no=14,missing=14
			13:[f2<4] yes=27,no=28,missing=27
				27:[f2<4] yes=53,no=54,missing=54
					53:leaf=0.0287141334
					54:leaf=0.0537788011
				28:[f2<5] yes=55,no=56,missing=56
					55:leaf=0.13548103
					56:leaf=0.00633482868
			14:[f1<2.00001001] yes=29,no=30,missing=30
				29:[f2<10] yes=57,no=58,missing=57
					57:leaf=-0.00545116421
					58:leaf=-0.132160068
				30:[f5<33] yes=59,no=60,missing=59
					59:leaf=0.0142168468
					60:leaf=0.00315587223
booster[37]:
0:[f1<2.00001001] yes=1,no=2,missing=2
	1:[f0<47] yes=3,no=4,missing=4
		3:[f0<44] yes=7,no=8,missing=8
			7:[f0<43] yes=15,no=16,missing=16
				15:[f0<41] yes=31,no=32,missing=32
					31:leaf=-0.0207944475
					32:leaf=-0.245288968
				16:[f2<2] yes=33,no=34,missing=34
					33:leaf=0.191782877
					34:leaf=0.122186676
			8:[f2<3] yes=17,no=18,missing=18
				17:[f5<81] yes=35,no=36,missing=36
					35:leaf=-0.10174223
					36:leaf=-0.147180855
				18:[f5<52] yes=37,no=38,missing=38
					37:leaf=-0.0395546407
					38:leaf=-0.10710334
		4:[f0<49] yes=9,no=10,missing=10
			9:[f2<2] yes=19,no=20,missing=20
				19:[f5<41] yes=39,no=40,missing=39
					39:leaf=0.139445707
					40:leaf=0.0621002726
				20:[f5<44] yes=41,no=42,missing=41
					41:leaf=0.219970271
					42:leaf=0.105728619
			10:[f0<85] yes=21,no=22,missing=22
				21:[f0<66] yes=43,no=44,missing=44
					43:leaf=0.0293720532
					44:leaf=-0.118290164
				22:[f0<87] yes=45,no=46,missing=46
					45:leaf=0.157748207
					46:leaf=-0.00314286607
	2:[f0<3] yes=5,no=6,missing=6
		5:[f0<2] yes=11,no=12,missing=12
			11:[f6<2.00001001] yes=23,no=24,missing=24
				23:[f2<2] yes=47,no=48,missing=47
					47:leaf=0.0272203051
					48:leaf=0.0631684661
				24:[f2<2] yes=49,no=50,missing=50
					49:leaf=0.0231161322
					50:leaf=-0.00833200291
			12:[f2<24] yes=25,no=26,missing=26
				25:[f5<5] yes=51,no=52,missing=52
					51:leaf=-0.191181257
					52:leaf=-0.222462431
				26:[f5<5] yes=53,no=54,missing=54
					53:leaf=-0.0403513163
					54:leaf=-0.0849573985
		6:[f0<26] yes=13,no=14,missing=14
			13:[f0<22] yes=27,no=28,missing=28
				27:[f0<21] yes=55,no=56,missing=56
					55:leaf=0.0049783932
					56:leaf=-0.252829999
				28:[f2<6] yes=57,no=58,missing=58
					57:leaf=0.0310673919
					58:leaf=0.214260966
			14:[f0<29] yes=29,no=30,missing=30
				29:[f2<3] yes=59,no=60,missing=60
					59:leaf=-0.0526137538
					60:leaf=-0.227382094
				30:[f0<33] yes=61,no=62,missing=62
					61:leaf=0.028519528
					62:leaf=0.000234227628
booster[38]:
0:[f0<49] yes=1,no=2,missing=2
	1:[f0<45] yes=3,no=4,missing=4
		3:[f0<43] yes=7,no=8,missing=8
			7:[f0<26] yes=15,no=16,missing=16
				15:[f0<25] yes=31,no=32,missing=32
					31:leaf=-0.000818879867
					32:leaf=0.0949922875
				16:[f0<29] yes=33,no=34,missing=34
					33:leaf=-0.0950845033
					34:leaf=-0.000529070967
			8:[f2<3] yes=17,no=18,missing=17
				17:[f2<2] yes=35,no=36,missing=35
					35:leaf=0.0624146834
					36:leaf=-0.210535049
				18:[f2<7] yes=37,no=38,missing=38
					37:leaf=0.143639773
					38:leaf=-0.164767638
		4:[f2<2] yes=9,no=10,missing=10
			9:[f0<47] yes=19,no=20,missing=20
				19:[f7<15] yes=39,no=40,missing=40
					39:leaf=-0.0421152785
					40:leaf=-0.0809390321
				20:[f7<28] yes=41,no=42,missing=42
					41:leaf=0.115830146
					42:leaf=0.0752415806
			10:[f1<2.00001001] yes=21,no=22,missing=22
				21:[f0<47] yes=43,no=44,missing=44
					43:leaf=-0.100234859
					44:leaf=0.119977377
				22:[f0<47] yes=45,no=46,missing=46
					45:leaf=-0.278510302
					46:leaf=-0.14494209
	2:[f0<56] yes=5,no=6,missing=6
		5:[f2<4] yes=11,no=12,missing=12
			11:[f0<51] yes=23,no=24,missing=24
				23:[f0<50] yes=47,no=48,missing=48
					47:leaf=0.0591312498
					48:leaf=-0.0887481943
				24:[f5<71] yes=49,no=50,missing=49
					49:leaf=0.0388575569
					50:leaf=-0.126945108
			12:[f0<54] yes=25,no=26,missing=26
				25:[f0<53] yes=51,no=52,missing=52
					51:leaf=0.0890979543
					52:leaf=-0.0551230274
				26:[f1<2.00001001] yes=53,no=54,missing=54
					53:leaf=-0.0116999513
					54:leaf=0.170626402
		6:[f0<57] yes=13,no=14,missing=14
			13:[f2<2] yes=27,no=28,missing=27
				27:[f2<2] yes=55,no=56,missing=56
					55:leaf=-0.0857924148
					56:leaf=-0.143725783
				28:[f2<5] yes=57,no=58,missing=58
					57:leaf=-0.22446318
					58:leaf=-0.102059603
			14:[f0<62] yes=29,no=30,missing=30
				29:[f0<60] yes=59,no=60,missing=60
					59:leaf=-0.0190114751
					60:leaf=0.111771606
				30:[f0<63] yes=61,no=62,missing=62
					61:leaf=-0.313850641
					62:leaf=0.00059605937
booster[39]:
0:[f0<151] yes=1,no=2,missing=2
	1:[f0<137] yes=3,no=4,missing=4
		3:[f0<133] yes=7,no=8,missing=8
			7:[f0<123] yes=15,no=16,missing=16
				15:[f0<107] yes=31,no=32,missing=32
					31:leaf=0.00183355133
					32:leaf=-0.0543454066
				16:[f0<126] yes=33,no=34,missing=34
					33:leaf=0.158466011
					34:leaf=0.0151491575
			8:[f2<2] yes=17,no=18,missing=18
				17:[f5<2] yes=35,no=36,missing=36
					35:leaf=-0.133578256
					36:leaf=0.0237544645
				18:[f5<2] yes=37,no=38,missing=38
					37:leaf=-0.255505115
					38:leaf=-0.109006964
		4:[f2<7] yes=9,no=10,missing=10
			9:[f0<147] yes=19,no=20,missing=20
				19:[f0<144] yes=39,no=40,missing=40
					39:leaf=0.0324447379
					40:leaf=-0.0248541702
				20:[f5<2] yes=41,no=42,missing=42
					41:leaf=0.173133582
					42:leaf=0.0581951812
			10:[f0<140] yes=21,no=22,missing=22
				21:[f1<2.00001001] yes=43,no=44,missing=44
					43:leaf=0.0205354448
					44:leaf=0.136796236
				22:[f1<2.00001001] yes=45,no=46,missing=46
					45:leaf=0.130965814
					46:leaf=0.217463419
	2:[f0<159] yes=5,no=6,missing=6
		5:[f2<47] yes=11,no=12,missing=12
			11:[f0<155] yes=23,no=24,missing=24
				23:[f7<3120] yes=47,no=48,missing=48
					47:leaf=0.0160165373
					48:leaf=-0.268745631
				24:[f2<4] yes=49,no=50,missing=50
					49:leaf=-0.077146396
					50:leaf=0.00358783803
			12:[f0<155] yes=25,no=26,missing=26
				25:[f5<2] yes=51,no=52,missing=52
					51:leaf=-0.279380471
					52:leaf=-0.209463701
				26:[f4<2.00001001] yes=53,no=54,missing=54
					53:leaf=0.297071874
					54:leaf=-0.0153588234
		6:[f0<189] yes=13,no=14,missing=14
			13:[f0<171] yes=27,no=28,missing=28
				27:[f0<167] yes=55,no=56,missing=56
					55:leaf=0.00123168295
					56:leaf=0.0383988805
				28:[f0<180] yes=57,no=58,missing=58
					57:leaf=-0.0667481571
					58:leaf=-0.0186212882
			14:[f0<193] yes=29,no=30,missing=30
				29:[f2<6] yes=59,no=60,missing=60
					59:leaf=0.0555294938
					60:leaf=0.14770481
				30:[f2<4] yes=61,no=62,missing=61
					61:leaf=0.00030439283
					62:leaf=-0.0139027406
booster[40]:
0:[f0<49] yes=1,no=2,missing=2
	1:[f0<45] yes=3,no=4,missing=4
		3:[f6<2.00001001] yes=7,no=8,missing=8
			7:[f0<14] yes=15,no=16,missing=16
				15:[f0<13] yes=31,no=32,missing=32
					31:leaf=0.0222931504
					32:leaf=0.0938369855
				16:[f0<15] yes=33,no=34,missing=34
					33:leaf=-0.301848739
					34:leaf=0.015338596
			8:[f0<38] yes=17,no=18,missing=18
				17:[f0<33] yes=35,no=36,missing=36
					35:leaf=-0.00272143353
					36:leaf=-0.0331873111
				18:[f0<40] yes=37,no=38,missing=38
					37:leaf=0.0622821748
					38:leaf=-0.00345874135
		4:[f2<2] yes=9,no=10,missing=10
			9:[f0<47] yes=19,no=20,missing=20
				19:[f5<3] yes=39,no=40,missing=40
					39:leaf=-0.0150882397
					40:leaf=-0.0586513989
				20:[f7<28] yes=41,no=42,missing=42
					41:leaf=0.0747064501
					42:leaf=0.0495431647
			10:[f1<2.00001001] yes=21,no=22,missing=22
				21:[f0<47] yes=43,no=44,missing=44
					43:leaf=-0.0778793171
					44:leaf=0.0753651559
				22:[f0<47] yes=45,no=46,missing=46
					45:leaf=-0.249218106
					46:leaf=-0.114650466
	2:[f0<72] yes=5,no=6,missing=6
		5:[f0<70] yes=11,no=12,missing=12
			11:[f0<69] yes=23,no=24,missing=24
				23:[f2<4] yes=47,no=48,missing=47
					47:leaf=0.0100581944
					48:leaf=0.0603763536
				24:[f1<2.00001001] yes=49,no=50,missing=50
					49:leaf=0.089040786
					50:leaf=-0.0770096928
			12:[f2<6] yes=25,no=26,missing=26
				25:[f1<2.00001001] yes=51,no=52,missing=52
					51:leaf=-0.173216879
					52:leaf=0.0701523498
				26:[f1<2.00001001] yes=53,no=54,missing=54
					53:leaf=-0.244610772
					54:leaf=0.193136334
		6:[f0<76] yes=13,no=14,missing=14
			13:[f2<17] yes=27,no=28,missing=28
				27:[f2<5] yes=55,no=56,missing=56
					55:leaf=-0.0799348578
					56:leaf=-0.222975716
				28:[f1<2.00001001] yes=57,no=58,missing=58
					57:leaf=-0.104712106
					58:leaf=0.0954835042
			14:[f0<79] yes=29,no=30,missing=30
				29:[f2<3] yes=59,no=60,missing=60
					59:leaf=0.0670749545
					60:leaf=0.137327492
				30:[f0<83] yes=61,no=62,missing=62
					61:leaf=-0.0466778353
					62:leaf=-5.21094735e-05
booster[41]:
0:[f5<35] yes=1,no=2,missing=1
	1:[f5<29] yes=3,no=4,missing=3
		3:[f5<21] yes=7,no=8,missing=7
			7:[f5<19] yes=15,no=16,missing=15
				15:[f5<12] yes=31,no=32,missing=31
					31:leaf=0.000991872512
					32:leaf=-0.00496820826
				16:[f6<2.00001001] yes=33,no=34,missing=34
					33:leaf=-0.000853738456
					34:leaf=0.0230430961
			8:[f0<7] yes=17,no=18,missing=18
				17:[f6<2.00001001] yes=35,no=36,missing=36
					35:leaf=0.0364896655
					36:leaf=-0.0305671562
				18:[f0<17] yes=37,no=38,missing=38
					37:leaf=0.0217646789
					38:leaf=-0.00446064491
		4:[f1<2.00001001] yes=9,no=10,missing=10
			9:[f0<3376] yes=19,no=20,missing=19
				19:[f5<31] yes=39,no=40,missing=40
					39:leaf=-0.0194328167
					40:leaf=-0.0362311453
				20:[f5<31] yes=41,no=42,missing=42
					41:leaf=0.0419241972
					42:leaf=-0.00467035687
			10:[f0<17] yes=21,no=22,missing=22
				21:[f0<16] yes=43,no=44,missing=44
					43:leaf=0.0189612508
					44:leaf=0.14169839
				22:[f0<19] yes=45,no=46,missing=46
					45:leaf=-0.152203426
					46:leaf=0.0103340093
	2:[f6<2.00001001] yes=5,no=6,missing=6
		5:[f0<81] yes=11,no=12,missing=11
			11:[f0<80] yes=23,no=24,missing=23
				23:[f2<3] yes=47,no=48,missing=47
					47:leaf=0.019599285
					48:leaf=0.00202063052
				24:[f2<2] yes=49,no=50,missing=50
					49:leaf=0.139415056
					50:leaf=0.227275044
			12:[f2<2] yes=25,no=26,missing=25
				25:[f0<83] yes=51,no=52,missing=52
					51:leaf=-0.108173512
					52:leaf=-0.0120885344
				26:[f5<40] yes=53,no=54,missing=54
					53:leaf=-0.0101801734
					54:leaf=0.0108840447
		6:[f0<137] yes=13,no=14,missing=13
			13:[f0<107] yes=27,no=28,missing=27
				27:[f0<104] yes=55,no=56,missing=55
					55:leaf=-0.00510949735
					56:leaf=0.0558400713
				28:[f0<117] yes=57,no=58,missing=58
					57:leaf=-0.143840298
					58:leaf=-0.00792011246
			14:[f0<151] yes=29,no=30,missing=30
				29:[f2<9] yes=59,no=60,missing=60
					59:leaf=0.0337944776
					60:leaf=0.123565108
				30:[f5<60] yes=61,no=62,missing=62
					61:leaf=-0.00649711862
					62:leaf=0.0109279919
booster[42]:
0:[f7<688] yes=1,no=2,missing=1
	1:[f7<141] yes=3,no=4,missing=4
		3:[f7<139] yes=7,no=8,missing=8
			7:[f7<134] yes=15,no=16,missing=16
				15:[f7<133] yes=31,no=32,missing=32
					31:leaf=-0.000845507078
					32:leaf=-0.0665956065
				16:[f2<2] yes=33,no=34,missing=33
					33:leaf=-0.0635534599
					34:leaf=0.0511092283
			8:[f2<2] yes=17,no=18,missing=18
				17:[f0<32] yes=35,no=36,missing=35
					35:leaf=-0.324130177
					36:leaf=-0.139668971
				18:[f5<2] yes=37,no=38,missing=37
					37:leaf=-0.0277423933
					38:leaf=-0.0900636166
		4:[f7<156] yes=9,no=10,missing=10
			9:[f2<3] yes=19,no=20,missing=19
				19:[f7<143] yes=39,no=40,missing=40
					39:leaf=0.0778110623
					40:leaf=0.0215080176
				20:[f7<143] yes=41,no=42,missing=42
					41:leaf=-0.0196061842
					42:leaf=0.0209326502
			10:[f7<208] yes=21,no=22,missing=22
				21:[f2<35] yes=43,no=44,missing=44
					43:leaf=-0.000542229332
					44:leaf=-0.0332119055
				22:[f7<222] yes=45,no=46,missing=46
					45:leaf=0.0332815163
					46:leaf=0.00211055484
	2:[f7<746] yes=5,no=6,missing=6
		5:[f2<5] yes=11,no=12,missing=12
			11:[f0<3] yes=23,no=24,missing=24
				23:[f7<706] yes=47,no=48,missing=48
					47:leaf=0.0160730518
					48:leaf=-0.0815263912
				24:[f7<706] yes=49,no=50,missing=50
					49:leaf=-0.00862813648
					50:leaf=-0.0207083113
			12:[f7<726] yes=25,no=26,missing=26
				25:[f0<22] yes=51,no=52,missing=51
					51:leaf=-0.0738303512
					52:leaf=-0.0234809332
				26:[f1<2.00001001] yes=53,no=54,missing=54
					53:leaf=-0.00522442581
					54:leaf=-0.128697976
		6:[f2<3] yes=13,no=14,missing=14
			13:[f2<2] yes=27,no=28,missing=28
				27:[f0<2] yes=55,no=56,missing=55
					55:leaf=0.0273570959
					56:leaf=-0.00115823268
				28:[f7<770] yes=57,no=58,missing=58
					57:leaf=-0.129382774
					58:leaf=-0.00991379656
			14:[f0<17234] yes=29,no=30,missing=30
				29:[f7<747] yes=59,no=60,missing=60
					59:leaf=0.117186017
					60:leaf=0.011829298
				30:[f7<840] yes=61,no=62,missing=62
					61:leaf=-0.0894371644
					62:leaf=-0.0205045696
booster[43]:
0:[f0<19] yes=1,no=2,missing=2
	1:[f0<17] yes=3,no=4,missing=4
		3:[f0<16] yes=7,no=8,missing=8
			7:[f0<14] yes=15,no=16,missing=16
				15:[f0<13] yes=31,no=32,missing=32
					31:leaf=-0.00276788371
					32:leaf=0.0797204077
				16:[f0<15] yes=33,no=34,missing=34
					33:leaf=-0.292584568
					34:leaf=0.0392777994
			8:[f7<2] yes=17,no=18,missing=18
				17:[f5<16] yes=35,no=36,missing=36
					35:leaf=-0.0838891119
					36:leaf=-0.034748707
				18:[f1<2.00001001] yes=37,no=38,missing=38
					37:leaf=-0.0906352997
					38:leaf=0.10608612
		4:[f0<18] yes=9,no=10,missing=10
			9:[f2<2] yes=19,no=20,missing=19
				19:[f7<2] yes=39,no=40,missing=40
					39:leaf=0.558175921
					40:leaf=-0.19718352
				20:[f2<3] yes=41,no=42,missing=42
					41:leaf=-0.3295165
					42:leaf=-0.254411459
			10:[f2<5] yes=21,no=22,missing=22
				21:[f2<3] yes=43,no=44,missing=44
					43:leaf=-0.102525853
					44:leaf=0.116059467
				22:[f2<11] yes=45,no=46,missing=45
					45:leaf=-0.304468453
					46:leaf=0.0556151755
	2:[f0<21] yes=5,no=6,missing=6
		5:[f0<20] yes=11,no=12,missing=12
			11:[f2<2] yes=23,no=24,missing=24
				23:[f1<2.00001001] yes=47,no=48,missing=48
					47:leaf=-0.0730434507
					48:leaf=-0.0142393066
				24:[f1<2.00001001] yes=49,no=50,missing=50
					49:leaf=-0.110348374
					50:leaf=0.129942223
			12:[f1<2.00001001] yes=25,no=26,missing=26
				25:[f5<12] yes=51,no=52,missing=51
					51:leaf=-0.0952511206
					52:leaf=-0.0478482544
				26:[f5<102] yes=53,no=54,missing=54
					53:leaf=0.135496348
					54:leaf=0.0793609992
		6:[f0<22] yes=13,no=14,missing=14
			13:[f7<2] yes=27,no=28,missing=28
				27:[f1<2.00001001] yes=55,no=56,missing=56
					55:leaf=-0.115334995
					56:leaf=0.430027544
				28:[f2<3] yes=57,no=58,missing=58
					57:leaf=-0.199979678
					58:leaf=-0.274482936
			14:[f0<23] yes=29,no=30,missing=30
				29:[f1<2.00001001] yes=59,no=60,missing=60
					59:leaf=-0.0459714606
					60:leaf=0.11759606
				30:[f0<35] yes=61,no=62,missing=62
					61:leaf=-0.0136521105
					62:leaf=0.000556689978
booster[44]:
0:[f0<268] yes=1,no=2,missing=2
	1:[f0<229] yes=3,no=4,missing=4
		3:[f0<199] yes=7,no=8,missing=8
			7:[f0<190] yes=15,no=16,missing=16
				15:[f0<172] yes=31,no=32,missing=32
					31:leaf=0.00102447462
					32:leaf=-0.0307475608
				16:[f1<2.00001001] yes=33,no=34,missing=34
					33:leaf=-0.0275482163
					34:leaf=0.0736992359
			8:[f0<213] yes=17,no=18,missing=18
				17:[f2<4] yes=35,no=36,missing=35
					35:leaf=-0.0509298928
					36:leaf=-0.114104964
				18:[f5<2] yes=37,no=38,missing=38
					37:leaf=0.054859072
					38:leaf=-0.000217133958
		4:[f1<2.00001001] yes=9,no=10,missing=10
			9:[f0<262] yes=19,no=20,missing=20
				19:[f2<3] yes=39,no=40,missing=40
					39:leaf=-0.0188637264
					40:leaf=-0.0502680428
				20:[f2<2] yes=41,no=42,missing=42
					41:leaf=-0.197663382
					42:leaf=-0.00676125754
			10:[f2<3] yes=21,no=22,missing=22
				21:[f0<251] yes=43,no=44,missing=44
					43:leaf=-0.009840969
					44:leaf=0.0359879211
				22:[f0<245] yes=45,no=46,missing=46
					45:leaf=0.0964923054
					46:leaf=0.025576232
	2:[f0<338] yes=5,no=6,missing=6
		5:[f0<288] yes=11,no=12,missing=12
			11:[f2<2] yes=23,no=24,missing=23
				23:[f6<2.00001001] yes=47,no=48,missing=48
					47:leaf=-0.149389192
					48:leaf=-0.0540255532
				24:[f2<4] yes=49,no=50,missing=50
					49:leaf=0.0732514113
					50:leaf=-0.014332667
			12:[f0<316] yes=25,no=26,missing=26
				25:[f0<309] yes=51,no=52,missing=52
					51:leaf=-0.0220858995
					52:leaf=0.0524607189
				26:[f2<54] yes=53,no=54,missing=54
					53:leaf=-0.0240198057
					54:leaf=-0.0776057169
		6:[f0<361] yes=13,no=14,missing=14
			13:[f0<353] yes=27,no=28,missing=28
				27:[f0<346] yes=55,no=56,missing=56
					55:leaf=0.0574406944
					56:leaf=-0.0546550415
				28:[f2<3] yes=57,no=58,missing=58
					57:leaf=0.0667103082
					58:leaf=0.164196193
			14:[f0<394] yes=29,no=30,missing=30
				29:[f2<5] yes=59,no=60,missing=59
					59:leaf=-0.0113954758
					60:leaf=-0.137737304
				30:[f0<402] yes=61,no=62,missing=62
					61:leaf=0.108681642
					62:leaf=-0.000511864317
booster[45]:
0:[f2<8] yes=1,no=2,missing=1
	1:[f0<1914] yes=3,no=4,missing=3
		3:[f0<1908] yes=7,no=8,missing=7
			7:[f0<1663] yes=15,no=16,missing=15
				15:[f0<1286] yes=31,no=32,missing=31
					31:leaf=-0.000611260883
					32:leaf=0.00901685376
				16:[f0<1756] yes=33,no=34,missing=34
					33:leaf=-0.0500068031
					34:leaf=0.0066461442
			8:[f2<8] yes=17,no=18,missing=18
				17:[f2<2] yes=35,no=36,missing=36
					35:leaf=-0.040275
					36:leaf=-0.160750911
				18:[f5<104] yes=37,no=38,missing=38
					37:leaf=-0.316753209
					38:leaf=-0.15264073
		4:[f0<2026] yes=9,no=10,missing=10
			9:[f2<6] yes=19,no=20,missing=20
				19:[f5<2] yes=39,no=40,missing=40
					39:leaf=-0.0195191223
					40:leaf=0.0243073441
				20:[f2<7] yes=41,no=42,missing=42
					41:leaf=0.165166929
					42:leaf=0.0789048821
			10:[f0<2087] yes=21,no=22,missing=22
				21:[f2<3] yes=43,no=44,missing=44
					43:leaf=-0.022462666
					44:leaf=-0.0892975181
				22:[f2<3] yes=45,no=46,missing=46
					45:leaf=-1.10637329e-05
					46:leaf=0.00753919035
	2:[f0<29] yes=5,no=6,missing=6
		5:[f0<28] yes=11,no=12,missing=12
			11:[f2<9] yes=23,no=24,missing=24
				23:[f5<59] yes=47,no=48,missing=48
					47:leaf=-0.056713935
					48:leaf=0.287362874
				24:[f0<8] yes=49,no=50,missing=50
					49:leaf=0.0955906361
					50:leaf=0.00232239254
			12:[f7<2] yes=25,no=26,missing=26
				25:leaf=0.775137365
				26:[f5<34] yes=51,no=52,missing=52
					51:leaf=-0.207449064
					52:leaf=-0.0522917844
		6:[f1<2.00001001] yes=13,no=14,missing=14
			13:[f0<324] yes=27,no=28,missing=27
				27:[f0<82] yes=53,no=54,missing=54
					53:leaf=-0.140490979
					54:leaf=0.113906719
				28:[f0<580] yes=55,no=56,missing=56
					55:leaf=-0.146156684
					56:leaf=-0.0105752591
			14:[f0<386] yes=29,no=30,missing=30
				29:[f0<38] yes=57,no=58,missing=58
					57:leaf=0.158842206
					58:leaf=0.0690542087
				30:[f2<10] yes=59,no=60,missing=60
					59:leaf=0.0581292249
					60:leaf=-0.00886850152
booster[46]:
0:[f0<151] yes=1,no=2,missing=2
	1:[f0<141] yes=3,no=4,missing=4
		3:[f0<138] yes=7,no=8,missing=8
			7:[f0<117] yes=15,no=16,missing=16
				15:[f0<105] yes=31,no=32,missing=32
					31:leaf=0.000984901213
					32:leaf=-0.0504686795
				16:[f0<124] yes=33,no=34,missing=34
					33:leaf=0.0696807876
					34:leaf=-0.00663179578
			8:[f2<2] yes=17,no=18,missing=18
				17:[f5<57] yes=35,no=36,missing=36
					35:leaf=-0.0333315022
					36:leaf=-0.0061047622
				18:[f2<3] yes=37,no=38,missing=37
					37:leaf=-0.149128184
					38:leaf=-0.0470623635
		4:[f0<144] yes=9,no=10,missing=10
			9:[f2<2] yes=19,no=20,missing=20
				19:[f5<3] yes=39,no=40,missing=40
					39:leaf=0.151698083
					40:leaf=0.0851461589
				20:[f2<6] yes=41,no=42,missing=42
					41:leaf=0.185461044
					42:leaf=0.27956742
			10:[f0<148] yes=21,no=22,missing=22
				21:[f2<2] yes=43,no=44,missing=44
					43:leaf=-0.103591442
					44:leaf=0.0198113322
				22:[f2<31] yes=45,no=46,missing=46
					45:leaf=0.0890680626
					46:leaf=0.340286195
	2:[f0<159] yes=5,no=6,missing=6
		5:[f2<25] yes=11,no=12,missing=12
			11:[f0<155] yes=23,no=24,missing=24
				23:[f5<2] yes=47,no=48,missing=48
					47:leaf=-0.0432438776
					48:leaf=0.0175098497
				24:[f1<2.00001001] yes=49,no=50,missing=50
					49:leaf=0.0695729703
					50:leaf=-0.0507910587
			12:[f0<155] yes=25,no=26,missing=26
				25:[f5<35] yes=51,no=52,missing=52
					51:leaf=-0.185812429
					52:leaf=-0.12982887
				26:[f5<34] yes=53,no=54,missing=54
					53:leaf=-0.0157159604
					54:leaf=0.00842666533
		6:[f0<160] yes=13,no=14,missing=14
			13:[f2<10] yes=27,no=28,missing=28
				27:[f5<118] yes=55,no=56,missing=56
					55:leaf=0.112639084
					56:leaf=0.235699773
				28:[f5<81] yes=57,no=58,missing=58
					57:leaf=-0.126726091
					58:leaf=0.0824775472
			14:[f0<181] yes=29,no=30,missing=30
				29:[f0<177] yes=59,no=60,missing=60
					59:leaf=-0.00579071045
					60:leaf=-0.0786846429
				30:[f0<186] yes=61,no=62,missing=62
					61:leaf=0.0500125922
					62:leaf=-0.000419901713
booster[47]:
0:[f0<63] yes=1,no=2,missing=2
	1:[f0<56] yes=3,no=4,missing=4
		3:[f0<51] yes=7,no=8,missing=8
			7:[f0<42] yes=15,no=16,missing=16
				15:[f0<35] yes=31,no=32,missing=32
					31:leaf=-0.00239585247
					32:leaf=0.0236665532
				16:[f0<44] yes=33,no=34,missing=34
					33:leaf=-0.131122932
					34:leaf=0.000663573213
			8:[f0<52] yes=17,no=18,missing=18
				17:[f1<2.00001001] yes=35,no=36,missing=36
					35:leaf=-0.324818254
					36:leaf=0.10697858
				18:[f0<53] yes=37,no=38,missing=38
					37:leaf=-0.0404176451
					38:leaf=0.0215999726
		4:[f0<58] yes=9,no=10,missing=10
			9:[f2<2] yes=19,no=20,missing=19
				19:[f1<2.00001001] yes=39,no=40,missing=40
					39:leaf=-0.0300533976
					40:leaf=-0.0980707034
				20:[f2<5] yes=41,no=42,missing=42
					41:leaf=-0.138020054
					42:leaf=-0.0372944809
			10:[f0<61] yes=21,no=22,missing=22
				21:[f2<5] yes=43,no=44,missing=44
					43:leaf=0.0154925575
					44:leaf=0.115951881
				22:[f2<3] yes=45,no=46,missing=46
					45:leaf=0.0749114528
					46:leaf=-0.15884462
	2:[f0<64] yes=5,no=6,missing=6
		5:[f2<6] yes=11,no=12,missing=12
			11:[f2<2] yes=23,no=24,missing=24
				23:[f5<3] yes=47,no=48,missing=48
					47:leaf=0.18300426
					48:leaf=0.116680145
				24:[f5<2] yes=49,no=50,missing=49
					49:leaf=0.259585291
					50:leaf=0.179150552
			12:[f1<2.00001001] yes=25,no=26,missing=26
				25:[f5<28] yes=51,no=52,missing=52
					51:leaf=0.157533854
					52:leaf=0.0861243755
				26:[f5<26] yes=53,no=54,missing=53
					53:leaf=0.341195554
					54:leaf=0.282072365
		6:[f0<90] yes=13,no=14,missing=14
			13:[f0<86] yes=27,no=28,missing=28
				27:[f2<2] yes=55,no=56,missing=56
					55:leaf=-0.0270316768
					56:leaf=0.020108711
				28:[f0<88] yes=57,no=58,missing=58
					57:leaf=0.116531819
					58:leaf=0.026441304
			14:[f0<92] yes=29,no=30,missing=30
				29:[f2<4] yes=59,no=60,missing=60
					59:leaf=-0.0808398128
					60:leaf=-0.279214919
				30:[f0<105] yes=61,no=62,missing=62
					61:leaf=0.0235383306
					62:leaf=-0.000408664026
booster[48]:
0:[f7<2] yes=1,no=2,missing=1
	1:[f2<6] yes=3,no=4,missing=4
		3:[f7<2] yes=7,no=8,missing=8
			7:[f5<5] yes=15,no=16,missing=16
				15:[f1<2.00001001] yes=31,no=32,missing=32
					31:leaf=-0.022265004
					32:leaf=0.021911921
				16:[f0<2] yes=33,no=34,missing=33
					33:leaf=0.0189894214
					34:leaf=-0.00117106538
			8:[f2<4] yes=17,no=18,missing=18
				17:[f0<36] yes=35,no=36,missing=35
					35:leaf=-0.167083114
					36:leaf=-0.0725686774
				18:[f5<2] yes=37,no=38,missing=38
					37:leaf=0.0470265374
					38:leaf=-0.0164077003
		4:[f1<2.00001001] yes=9,no=10,missing=10
			9:[f0<80] yes=19,no=20,missing=20
				19:[f0<66] yes=39,no=40,missing=40
					39:leaf=-0.0181112196
					40:leaf=-0.209967181
				20:[f0<95] yes=41,no=42,missing=42
					41:leaf=0.0603767745
					42:leaf=-0.00209605345
			10:[f0<521] yes=21,no=22,missing=22
				21:[f0<378] yes=43,no=44,missing=44
					43:leaf=0.0128492769
					44:leaf=0.0925253928
				22:[f0<606] yes=45,no=46,missing=46
					45:leaf=-0.068707861
					46:leaf=0.00997061841
	2:[f7<20] yes=5,no=6,missing=6
		5:[f7<18] yes=11,no=12,missing=12
			11:[f7<17] yes=23,no=24,missing=24
				23:[f7<15] yes=47,no=48,missing=48
					47:leaf=-0.00052139617
					48:leaf=-0.0161100738
				24:[f2<2] yes=49,no=50,missing=50
					49:leaf=-0.143713996
					50:leaf=0.0354696959
			12:[f2<3] yes=25,no=26,missing=26
				25:[f5<2] yes=51,no=52,missing=52
					51:leaf=-0.16805388
					52:leaf=-0.0436147079
				26:[f7<19] yes=53,no=54,missing=54
					53:leaf=0.0383757465
					54:leaf=-0.00361722172
		6:[f2<72] yes=13,no=14,missing=14
			13:[f7<23] yes=27,no=28,missing=28
				27:[f0<2] yes=55,no=56,missing=56
					55:leaf=0.178331852
					56:leaf=0.0113365632
				28:[f7<25] yes=57,no=58,missing=58
					57:leaf=-0.0182072874
					58:leaf=0.00152911467
			14:[f0<3] yes=29,no=30,missing=29
				29:[f5<2] yes=59,no=60,missing=60
					59:leaf=0.0546176173
					60:leaf=-0.0339152329
				30:[f7<40] yes=61,no=62,missing=62
					61:leaf=-0.0179255959
					62:leaf=-0.00134200137
booster[49]:
0:[f0<8] yes=1,no=2,missing=2
	1:[f0<7] yes=3,no=4,missing=4
		3:[f2<2] yes=7,no=8,missing=8
			7:[f0<2] yes=15,no=16,missing=16
				15:[f7<8] yes=31,no=32,missing=31
					31:leaf=-0.0698586255
					32:leaf=0.0297929011
				16:[f0<3] yes=33,no=34,missing=34
					33:leaf=-0.186897755
					34:leaf=-0.0213521384
			8:[f5<31] yes=17,no=18,missing=18
				17:[f5<21] yes=35,no=36,missing=36
					35:leaf=0.00270731119
					36:leaf=-0.0154219326
				18:[f5<32] yes=37,no=38,missing=38
					37:leaf=0.0721267462
					38:leaf=0.00892486796
		4:[f2<3] yes=9,no=10,missing=9
			9:[f5<124] yes=19,no=20,missing=20
				19:[f5<2] yes=39,no=40,missing=40
					39:leaf=0.130975068
					40:leaf=0.0309491996
				20:[f7<9] yes=41,no=42,missing=41
					41:leaf=-0.0328096971
					42:leaf=-0.0181068778
			10:[f5<2] yes=21,no=22,missing=22
				21:[f1<2.00001001] yes=43,no=44,missing=44
					43:leaf=-0.126888618
					44:leaf=0.427981347
				22:[f1<2.00001001] yes=45,no=46,missing=46
					45:leaf=-0.180184335
					46:leaf=0.154175684
	2:[f0<9] yes=5,no=6,missing=6
